{"learner":{"attributes":{"scikit_learn":"{\"_estimator_type\": \"classifier\"}"},"feature_names":["entropy_max","has_network_in_install","has_credential_access","has_obfuscated_code","has_exec_eval","install_script_lines","dangerous_import_count","has_os_targeting","has_external_payload","api_category_count","typosquat_distance","is_typosquat","has_repo_link","version_count","version_jump_suspicious","description_length","readme_length"],"feature_types":["float","int","int","int","int","int","int","int","int","int","int","int","int","int","int","int","int"],"gradient_booster":{"model":{"cats":{"enc":[],"feature_segments":[],"sorted_idx":[]},"gbtree_model_param":{"num_parallel_tree":"1","num_trees":"300"},"iteration_indptr":[0,1,2,3,4,5,6,7,8,9,10,11,12,13,14,15,16,17,18,19,20,21,22,23,24,25,26,27,28,29,30,31,32,33,34,35,36,37,38,39,40,41,42,43,44,45,46,47,48,49,50,51,52,53,54,55,56,57,58,59,60,61,62,63,64,65,66,67,68,69,70,71,72,73,74,75,76,77,78,79,80,81,82,83,84,85,86,87,88,89,90,91,92,93,94,95,96,97,98,99,100,101,102,103,104,105,106,107,108,109,110,111,112,113,114,115,116,117,118,119,120,121,122,123,124,125,126,127,128,129,130,131,132,133,134,135,136,137,138,139,140,141,142,143,144,145,146,147,148,149,150,151,152,153,154,155,156,157,158,159,160,161,162,163,164,165,166,167,168,169,170,171,172,173,174,175,176,177,178,179,180,181,182,183,184,185,186,187,188,189,190,191,192,193,194,195,196,197,198,199,200,201,202,203,204,205,206,207,208,209,210,211,212,213,214,215,216,217,218,219,220,221,222,223,224,225,226,227,228,229,230,231,232,233,234,235,236,237,238,239,240,241,242,243,244,245,246,247,248,249,250,251,252,253,254,255,256,257,258,259,260,261,262,263,264,265,266,267,268,269,270,271,272,273,274,275,276,277,278,279,280,281,282,283,284,285,286,287,288,289,290,291,292,293,294,295,296,297,298,299,300],"tree_info":[0,0,0,0,0,0,0,0,0,0,0,0,0,0,0,0,0,0,0,0,0,0,0,0,0,0,0,0,0,0,0,0,0,0,0,0,0,0,0,0,0,0,0,0,0,0,0,0,0,0,0,0,0,0,0,0,0,0,0,0,0,0,0,0,0,0,0,0,0,0,0,0,0,0,0,0,0,0,0,0,0,0,0,0,0,0,0,0,0,0,0,0,0,0,0,0,0,0,0,0,0,0,0,0,0,0,0,0,0,0,0,0,0,0,0,0,0,0,0,0,0,0,0,0,0,0,0,0,0,0,0,0,0,0,0,0,0,0,0,0,0,0,0,0,0,0,0,0,0,0,0,0,0,0,0,0,0,0,0,0,0,0,0,0,0,0,0,0,0,0,0,0,0,0,0,0,0,0,0,0,0,0,0,0,0,0,0,0,0,0,0,0,0,0,0,0,0,0,0,0,0,0,0,0,0,0,0,0,0,0,0,0,0,0,0,0,0,0,0,0,0,0,0,0,0,0,0,0,0,0,0,0,0,0,0,0,0,0,0,0,0,0,0,0,0,0,0,0,0,0,0,0,0,0,0,0,0,0,0,0,0,0,0,0,0,0,0,0,0,0,0,0,0,0,0,0,0,0,0,0,0,0,0,0,0,0,0,0,0,0,0,0,0,0,0,0,0,0,0,0],"trees":[{"base_weights":[4.948723E-2,9.838041E-2,-9.787325E-2],"categories":[],"categories_nodes":[],"categories_segments":[],"categories_sizes":[],"default_left":[0,0,0],"id":0,"left_children":[1,-1,-1],"loss_changes":[7.066147E2,0E0,0E0],"parents":[2147483647,0,0],"right_children":[2,-1,-1],"split_conditions":[1.1E1,9.838041E-2,-9.787325E-2],"split_indices":[15,0,0],"split_type":[0,0,0],"sum_hessian":[1.8155595E2,9.284247E1,8.8713486E1],"tree_param":{"num_deleted":"0","num_feature":"17","num_nodes":"3","size_leaf_vector":"1"}},{"base_weights":[3.038177E-2,9.323696E-2,-9.333647E-2],"categories":[],"categories_nodes":[],"categories_segments":[],"categories_sizes":[],"default_left":[0,0,0],"id":1,"left_children":[1,-1,-1],"loss_changes":[6.4933417E2,0E0,0E0],"parents":[2147483647,0,0],"right_children":[2,-1,-1],"split_conditions":[1.1E1,9.323696E-2,-9.333647E-2],"split_indices":[15,0,0],"split_type":[0,0,0],"sum_hessian":[1.845911E2,9.385639E1,9.0734695E1],"tree_param":{"num_deleted":"0","num_feature":"17","num_nodes":"3","size_leaf_vector":"1"}},{"base_weights":[3.5731925E-3,8.920955E-2,-8.932904E-2],"categories":[],"categories_nodes":[],"categories_segments":[],"categories_sizes":[],"default_left":[0,0,0],"id":2,"left_children":[1,-1,-1],"loss_changes":[5.920882E2,0E0,0E0],"parents":[2147483647,0,0],"right_children":[2,-1,-1],"split_conditions":[1.1E1,8.920955E-2,-8.932904E-2],"split_indices":[15,0,0],"split_type":[0,0,0],"sum_hessian":[1.837485E2,9.2121284E1,9.162721E1],"tree_param":{"num_deleted":"0","num_feature":"17","num_nodes":"3","size_leaf_vector":"1"}},{"base_weights":[-2.9147465E-2,1.7141672E0,-8.5809655E-2,8.622758E-2,2.9420072E-2],"categories":[],"categories_nodes":[],"categories_segments":[],"categories_sizes":[],"default_left":[0,0,0,0,0],"id":3,"left_children":[1,3,-1,-1,-1],"loss_changes":[5.5208606E2,6.463623E-2,0E0,0E0,0E0],"parents":[2147483647,0,0,1,1],"right_children":[2,4,-1,-1,-1],"split_conditions":[1.1E1,1E0,-8.5809655E-2,8.622758E-2,2.9420072E-2],"split_indices":[15,2,0,0,0],"split_type":[0,0,0,0,0],"sum_hessian":[1.8571698E2,9.132741E1,9.438958E1,8.996565E1,1.361758E0],"tree_param":{"num_deleted":"0","num_feature":"17","num_nodes":"5","size_leaf_vector":"1"}},{"base_weights":[2.7173528E-2,8.3719134E-2,-1.6543877E0,-7.289155E-1,-8.352089E-2,-8.464272E-3,-4.634604E-2],"categories":[],"categories_nodes":[],"categories_segments":[],"categories_sizes":[],"default_left":[0,0,0,0,0,0,0],"id":4,"left_children":[1,-1,3,5,-1,-1,-1],"loss_changes":[4.9933398E2,0E0,1.0594177E-1,2.080009E-1,0E0,0E0,0E0],"parents":[2147483647,0,0,2,2,3,3],"right_children":[2,-1,4,6,-1,-1,-1],"split_conditions":[1.1E1,8.3719134E-2,3.83E2,2.7E1,-8.352089E-2,-8.464272E-3,-4.634604E-2],"split_indices":[15,0,16,5,0,0,0],"split_type":[0,0,0,0,0,0,0],"sum_hessian":[1.7827252E2,9.005827E1,8.821424E1,2.293171E0,8.592107E1,1.0840975E0,1.2090734E0],"tree_param":{"num_deleted":"0","num_feature":"17","num_nodes":"7","size_leaf_vector":"1"}},{"base_weights":[-3.217546E-2,1.5970353E0,-1.6011126E0,8.0357246E-2,2.6473511E-2,-6.8003833E-1,-8.085583E-2,-5.4611918E-3,-4.59841E-2],"categories":[],"categories_nodes":[],"categories_segments":[],"categories_sizes":[],"default_left":[0,0,0,0,0,0,0,0,0],"id":5,"left_children":[1,3,5,-1,-1,7,-1,-1,-1],"loss_changes":[4.6924304E2,1.2112427E-1,2.7868652E-1,0E0,0E0,3.5406506E-1,0E0,0E0,0E0],"parents":[2147483647,0,0,1,1,2,2,5,5],"right_children":[2,4,6,-1,-1,8,-1,-1,-1],"split_conditions":[1.1E1,1E0,3.83E2,8.0357246E-2,2.6473511E-2,1E0,-8.085583E-2,-5.4611918E-3,-4.59841E-2],"split_indices":[15,2,16,0,0,6,0,0,0],"split_type":[0,0,0,0,0,0,0,0,0],"sum_hessian":[1.8157527E2,8.9067825E1,9.250745E1,8.77316E1,1.3362277E0,2.3226814E0,9.018476E1,1.1172485E0,1.2054328E0],"tree_param":{"num_deleted":"0","num_feature":"17","num_nodes":"9","size_leaf_vector":"1"}},{"base_weights":[6.2256157E-3,1.5481129E0,-7.764447E-2,7.789512E-2,2.7011454E-2],"categories":[],"categories_nodes":[],"categories_segments":[],"categories_sizes":[],"default_left":[0,0,0,0,0],"id":6,"left_children":[1,3,-1,-1,-1],"loss_changes":[4.220014E2,2.9205322E-2,0E0,0E0,0E0],"parents":[2147483647,0,0,1,1],"right_children":[2,4,-1,-1,-1],"split_conditions":[1.1E1,1E0,-7.764447E-2,7.789512E-2,2.7011454E-2],"split_indices":[15,2,0,0,0],"split_type":[0,0,0,0,0],"sum_hessian":[1.7354283E2,8.725703E1,8.6285805E1,8.58772E1,1.3798273E0],"tree_param":{"num_deleted":"0","num_feature":"17","num_nodes":"5","size_leaf_vector":"1"}},{"base_weights":[-1.2044629E-2,7.521624E-2,-7.53944E-2],"categories":[],"categories_nodes":[],"categories_segments":[],"categories_sizes":[],"default_left":[0,0,0],"id":7,"left_children":[1,-1,-1],"loss_changes":[3.9557324E2,0E0,0E0],"parents":[2147483647,0,0],"right_children":[2,-1,-1],"split_conditions":[1.1E1,7.521624E-2,-7.53944E-2],"split_indices":[15,0,0],"split_type":[0,0,0],"sum_hessian":[1.7239566E2,8.5607635E1,8.6788025E1],"tree_param":{"num_deleted":"0","num_feature":"17","num_nodes":"3","size_leaf_vector":"1"}},{"base_weights":[-1.6401902E-2,7.32121E-2,-1.4663829E0,-6.215162E-1,-7.419018E-2,-1.08377855E-4,-4.5143314E-2],"categories":[],"categories_nodes":[],"categories_segments":[],"categories_sizes":[],"default_left":[0,0,0,0,0,0,0],"id":8,"left_children":[1,-1,3,5,-1,-1,-1],"loss_changes":[3.664657E2,0E0,3.4700012E-1,6.014774E-1,0E0,0E0,0E0],"parents":[2147483647,0,0,2,2,3,3],"right_children":[2,-1,4,6,-1,-1,-1],"split_conditions":[1.1E1,7.32121E-2,3.83E2,7.4E1,-7.419018E-2,-1.08377855E-4,-4.5143314E-2],"split_indices":[15,0,16,5,0,0,0],"split_type":[0,0,0,0,0,0,0],"sum_hessian":[1.6869475E2,8.345999E1,8.5234764E1,2.462963E0,8.27718E1,1.0841275E0,1.3788354E0],"tree_param":{"num_deleted":"0","num_feature":"17","num_nodes":"7","size_leaf_vector":"1"}},{"base_weights":[-1.5091037E-2,4.0009668E-1,-6.745052E-2,-9.254898E-1,7.7055585E-1,5.2596655E-2,-6.940933E-2,1.2795856E0,-1.0613694E-1,1.3432995E0,1.930672E-1,6.0865965E-2,-8.524452E-1,8.3521307E-1,7.191976E-2,4.698963E-2,-2.9302994E-2,-1.1253847E0,-4.7842827E-1,6.679059E-2,-2.918131E-2,-1.2906099E-2,-5.9931308E-2,1.31961135E-2,-4.34701E-2],"categories":[],"categories_nodes":[],"categories_segments":[],"categories_sizes":[],"default_left":[0,0,0,0,0,0,0,0,0,0,0,0,0,0,0,0,0,0,0,0,0,0,0,0,0],"id":9,"left_children":[1,3,-1,5,7,-1,-1,9,11,13,15,-1,17,19,-1,-1,-1,21,23,-1,-1,-1,-1,-1,-1],"loss_changes":[9.157086E1,6.2648888E1,0E0,2.708126E1,4.436934E1,0E0,0E0,4.0870743E0,3.7912727E1,1.6560974E0,3.2536135E0,0E0,1.9585991E0,9.095819E0,0E0,0E0,0E0,5.418644E-1,3.7294278E0,0E0,0E0,0E0,0E0,0E0,0E0],"parents":[2147483647,0,0,1,1,3,3,4,4,7,7,8,8,9,9,10,10,12,12,13,13,17,17,18,18],"right_children":[2,4,-1,6,8,-1,-1,10,12,14,16,-1,18,20,-1,-1,-1,22,24,-1,-1,-1,-1,-1,-1],"split_conditions":[4.829E3,5E0,-6.745052E-2,2.56E2,4.4E1,5.2596655E-2,-6.940933E-2,4E0,1.75E2,1E0,3.83E2,6.0865965E-2,4E0,2.91E2,7.191976E-2,4.698963E-2,-2.9302994E-2,5.8E1,1E0,6.679059E-2,-2.918131E-2,-1.2906099E-2,-5.9931308E-2,1.31961135E-2,-4.34701E-2],"split_indices":[16,5,0,16,5,0,0,9,16,3,16,0,9,16,0,0,0,5,7,0,0,0,0,0,0],"split_type":[0,0,0,0,0,0,0,0,0,0,0,0,0,0,0,0,0,0,0,0,0,0,0,0,0],"sum_hessian":[1.6336745E2,1.251226E2,3.8244843E1,2.7002686E1,9.811991E1,4.878786E0,2.21239E1,6.1785908E1,3.6334003E1,5.8140213E1,3.6456969E0,1.2873618E1,2.3460386E1,1.0708527E1,4.7431686E1,1.7562611E0,1.8894358E0,1.2401474E1,1.1058912E1,7.9589477E0,2.7495792E0,1.3180859E0,1.1083388E1,3.9272041E0,7.131708E0],"tree_param":{"num_deleted":"0","num_feature":"17","num_nodes":"25","size_leaf_vector":"1"}},{"base_weights":[-8.015321E-3,1.4002441E0,-1.4010406E0,7.0518725E-2,2.26367E-2,-7.1624565E-1,-7.108531E-2,-4.2639333E-3,-4.6763513E-2],"categories":[],"categories_nodes":[],"categories_segments":[],"categories_sizes":[],"default_left":[0,0,0,0,0,0,0,0,0],"id":10,"left_children":[1,3,5,-1,-1,7,-1,-1,-1],"loss_changes":[3.1622836E2,1.3095093E-1,1.2849426E-1,0E0,0E0,5.26803E-1,0E0,0E0,0E0],"parents":[2147483647,0,0,1,1,2,2,5,5],"right_children":[2,4,6,-1,-1,8,-1,-1,-1],"split_conditions":[1.1E1,1E0,4.4825E0,7.0518725E-2,2.26367E-2,2.8E1,-7.108531E-2,-4.2639333E-3,-4.6763513E-2],"split_indices":[15,2,0,0,0,15,0,0,0],"split_type":[0,0,0,0,0,0,0,0,0],"sum_hessian":[1.5919778E2,7.916344E1,8.003435E1,7.784266E1,1.3207744E0,3.3890996E0,7.664525E1,1.2313057E0,2.157794E0],"tree_param":{"num_deleted":"0","num_feature":"17","num_nodes":"9","size_leaf_vector":"1"}},{"base_weights":[2.8613037E-3,6.9128476E-2,-6.881953E-2],"categories":[],"categories_nodes":[],"categories_segments":[],"categories_sizes":[],"default_left":[0,0,0],"id":11,"left_children":[1,-1,-1],"loss_changes":[2.965393E2,0E0,0E0],"parents":[2147483647,0,0],"right_children":[2,-1,-1],"split_conditions":[1.1E1,6.9128476E-2,-6.881953E-2],"split_indices":[15,0,0],"split_type":[0,0,0],"sum_hessian":[1.5383014E2,7.6901146E1,7.692899E1],"tree_param":{"num_deleted":"0","num_feature":"17","num_nodes":"3","size_leaf_vector":"1"}},{"base_weights":[-4.4465596E-3,6.772224E-2,-6.74346E-2],"categories":[],"categories_nodes":[],"categories_segments":[],"categories_sizes":[],"default_left":[0,0,0],"id":12,"left_children":[1,-1,-1],"loss_changes":[2.7877298E2,0E0,0E0],"parents":[2147483647,0,0],"right_children":[2,-1,-1],"split_conditions":[1.1E1,6.772224E-2,-6.74346E-2],"split_indices":[15,0,0],"split_type":[0,0,0],"sum_hessian":[1.5061151E2,7.4893974E1,7.5717545E1],"tree_param":{"num_deleted":"0","num_feature":"17","num_nodes":"3","size_leaf_vector":"1"}},{"base_weights":[-2.046461E-2,1.31499E0,-1.3194603E0,6.630089E-2,2.0023448E-2,-6.4514947E-1,-6.698971E-2,5.905178E-4,-4.5434047E-2],"categories":[],"categories_nodes":[],"categories_segments":[],"categories_sizes":[],"default_left":[0,0,0,0,0,0,0,0,0],"id":13,"left_children":[1,3,5,-1,-1,7,-1,-1,-1],"loss_changes":[2.5902124E2,2.1154022E-1,1.7333984E-1,0E0,0E0,7.2820365E-1,0E0,0E0,0E0],"parents":[2147483647,0,0,1,1,2,2,5,5],"right_children":[2,4,6,-1,-1,8,-1,-1,-1],"split_conditions":[1.1E1,1E0,4.4825E0,6.630089E-2,2.0023448E-2,1.155E3,-6.698971E-2,5.905178E-4,-4.5434047E-2],"split_indices":[15,2,0,0,0,16,0,0,0],"split_type":[0,0,0,0,0,0,0,0,0],"sum_hessian":[1.4731311E2,7.263113E1,7.4681984E1,7.132115E1,1.3099804E0,3.1441326E0,7.153785E1,1.173611E0,1.9705215E0],"tree_param":{"num_deleted":"0","num_feature":"17","num_nodes":"9","size_leaf_vector":"1"}},{"base_weights":[3.1156949E-4,1.2916611E0,-1.2953616E0,6.513395E-2,1.9595029E-2,-5.0131685E-1,-6.566299E-2,-3.5036865E-3,-3.5766795E-2],"categories":[],"categories_nodes":[],"categories_segments":[],"categories_sizes":[],"default_left":[0,0,0,0,0,0,0,0,0],"id":14,"left_children":[1,3,5,-1,-1,7,-1,-1,-1],"loss_changes":[2.4060548E2,2.0346832E-1,3.617859E-1,0E0,0E0,2.4519116E-1,0E0,0E0,0E0],"parents":[2147483647,0,0,1,1,2,2,5,5],"right_children":[2,4,6,-1,-1,8,-1,-1,-1],"split_conditions":[1.1E1,1E0,3.83E2,6.513395E-2,1.9595029E-2,7.4E1,-6.566299E-2,-3.5036865E-3,-3.5766795E-2],"split_indices":[15,2,16,0,0,5,0,0,0],"split_type":[0,0,0,0,0,0,0,0,0],"sum_hessian":[1.4180241E2,7.1021255E1,7.078116E1,6.97197E1,1.3015541E0,2.1997378E0,6.858142E1,1.169879E0,1.0298588E0],"tree_param":{"num_deleted":"0","num_feature":"17","num_nodes":"9","size_leaf_vector":"1"}},{"base_weights":[-1.6556583E-2,6.345604E-2,-6.392637E-2],"categories":[],"categories_nodes":[],"categories_segments":[],"categories_sizes":[],"default_left":[0,0,0],"id":15,"left_children":[1,-1,-1],"loss_changes":[2.2594128E2,0E0,0E0],"parents":[2147483647,0,0],"right_children":[2,-1,-1],"split_conditions":[1.1E1,6.345604E-2,-6.392637E-2],"split_indices":[15,0,0],"split_type":[0,0,0],"sum_hessian":[1.3725606E2,6.798662E1,6.926944E1],"tree_param":{"num_deleted":"0","num_feature":"17","num_nodes":"3","size_leaf_vector":"1"}},{"base_weights":[-3.550118E-2,6.241099E-2,-1.2583086E0,-5.457193E-1,-6.3731335E-2,-3.5054137E-3,-3.7741877E-2],"categories":[],"categories_nodes":[],"categories_segments":[],"categories_sizes":[],"default_left":[0,0,0,0,0,0,0],"id":16,"left_children":[1,-1,3,5,-1,-1,-1],"loss_changes":[2.1467163E2,0E0,1.18652344E-1,2.7691793E-1,0E0,0E0,0E0],"parents":[2147483647,0,0,2,2,3,3],"right_children":[2,-1,4,6,-1,-1,-1],"split_conditions":[1.1E1,6.241099E-2,3.83E2,1E0,-6.3731335E-2,-3.5054137E-3,-3.7741877E-2],"split_indices":[15,0,16,6,0,0,0],"split_type":[0,0,0,0,0,0,0],"sum_hessian":[1.3475526E2,6.573009E1,6.902518E1,2.3163276E0,6.6708855E1,1.1152039E0,1.2011236E0],"tree_param":{"num_deleted":"0","num_feature":"17","num_nodes":"7","size_leaf_vector":"1"}},{"base_weights":[-3.924759E-2,1.2284837E0,-1.2383338E0,6.2063914E-2,1.3426631E-2,-5.575461E-1,-6.2849104E-2,-4.779028E-3,-3.7579335E-2],"categories":[],"categories_nodes":[],"categories_segments":[],"categories_sizes":[],"default_left":[0,0,0,0,0,0,0,0,0],"id":17,"left_children":[1,3,5,-1,-1,7,-1,-1,-1],"loss_changes":[2.0092206E2,4.5597076E-1,1.6133118E-1,0E0,0E0,2.5156248E-1,0E0,0E0,0E0],"parents":[2147483647,0,0,1,1,2,2,5,5],"right_children":[2,4,6,-1,-1,8,-1,-1,-1],"split_conditions":[1.1E1,1E0,4.4825E0,6.2063914E-2,1.3426631E-2,1.155E3,-6.2849104E-2,-4.779028E-3,-3.7579335E-2],"split_indices":[15,2,0,0,0,16,0,0,0],"split_type":[0,0,0,0,0,0,0,0,0],"sum_hessian":[1.3017445E2,6.3264103E1,6.691035E1,6.2142776E1,1.1213257E0,2.6077578E0,6.430259E1,1.2128423E0,1.3949155E0],"tree_param":{"num_deleted":"0","num_feature":"17","num_nodes":"9","size_leaf_vector":"1"}},{"base_weights":[4.2691757E-3,1.2274785E0,-1.2148521E0,6.200846E-2,1.7671539E-2,-4.1508758E-1,-6.1744805E-2,-2.8627759E-2,-2.907675E-3],"categories":[],"categories_nodes":[],"categories_segments":[],"categories_sizes":[],"default_left":[0,0,0,0,0,0,0,0,0],"id":18,"left_children":[1,3,5,-1,-1,7,-1,-1,-1],"loss_changes":[1.8791518E2,2.5938416E-1,4.991455E-1,0E0,0E0,1.3809842E-1,0E0,0E0,0E0],"parents":[2147483647,0,0,1,1,2,2,5,5],"right_children":[2,4,6,-1,-1,8,-1,-1,-1],"split_conditions":[1.1E1,1E0,3.83E2,6.200846E-2,1.7671539E-2,2.56E2,-6.1744805E-2,-2.8627759E-2,-2.907675E-3],"split_indices":[15,2,16,0,0,16,0,0,0],"split_type":[0,0,0,0,0,0,0,0,0],"sum_hessian":[1.2401269E2,6.189913E1,6.2113556E1,6.0600365E1,1.2987671E0,2.049423E0,6.0064133E1,1.002889E0,1.046534E0],"tree_param":{"num_deleted":"0","num_feature":"17","num_nodes":"9","size_leaf_vector":"1"}},{"base_weights":[-5.0036977E-3,1.2102169E0,-5.9859525E-2,6.1185967E-2,1.4381684E-2],"categories":[],"categories_nodes":[],"categories_segments":[],"categories_sizes":[],"default_left":[0,0,0,0,0],"id":19,"left_children":[1,3,-1,-1,-1],"loss_changes":[1.7505309E2,3.9344025E-1,0E0,0E0,0E0],"parents":[2147483647,0,0,1,1],"right_children":[2,4,-1,-1,-1],"split_conditions":[1.1E1,1E0,-5.9859525E-2,6.1185967E-2,1.4381684E-2],"split_indices":[15,2,0,0,0],"split_type":[0,0,0,0,0],"sum_hessian":[1.1882871E2,5.8838398E1,5.999031E1,5.766799E1,1.1704073E0],"tree_param":{"num_deleted":"0","num_feature":"17","num_nodes":"5","size_leaf_vector":"1"}},{"base_weights":[2.747964E-2,3.6783183E-1,-5.491357E-2,-7.2146904E-1,6.4030296E-1,3.7019745E-2,-5.6280166E-2,1.077278E0,-1.0396774E-1,5.882138E-1,5.9151527E-2,9.6386385E-1,-6.881192E-1,5.4548513E-2,-3.2397088E-2,4.4599402E-1,5.345271E-2,-8.270649E-1,-3.9406154E-2,3.4175064E-2,-4.950482E-4,-4.308538E-2,-1.0722573E-2,2.6385853E-2,-3.2638025E-2],"categories":[],"categories_nodes":[],"categories_segments":[],"categories_sizes":[],"default_left":[0,0,0,0,0,0,0,0,0,0,0,0,0,0,0,0,0,0,0,0,0,0,0,0,0],"id":20,"left_children":[1,3,-1,5,7,-1,-1,9,11,13,-1,15,17,-1,-1,19,-1,21,23,-1,-1,-1,-1,-1,-1],"loss_changes":[4.3562134E1,2.6355022E1,0E0,1.1423677E1,2.298014E1,0E0,0E0,1.6000175E0,1.7457243E1,6.847898E0,0E0,6.45113E-2,1.5886288E0,0E0,0E0,3.742007E-1,0E0,1.2852573E-1,1.8133955E0,0E0,0E0,0E0,0E0,0E0,0E0],"parents":[2147483647,0,0,1,1,3,3,4,4,7,7,8,8,9,9,11,11,12,12,15,15,17,17,18,18],"right_children":[2,4,-1,6,8,-1,-1,10,12,14,-1,16,18,-1,-1,20,-1,22,24,-1,-1,-1,-1,-1,-1],"split_conditions":[4.829E3,5E0,-5.491357E-2,2.56E2,4.4E1,3.7019745E-2,-5.6280166E-2,1E0,1.75E2,4.43E2,5.9151527E-2,5.0888E0,5.5936E0,5.4548513E-2,-3.2397088E-2,7.2E1,5.345271E-2,7E0,5.8377E0,3.4175064E-2,-4.950482E-4,-4.308538E-2,-1.0722573E-2,2.6385853E-2,-3.2638025E-2],"split_indices":[16,5,0,16,5,0,0,3,16,16,0,0,0,0,0,5,0,6,0,0,0,0,0,0,0],"split_type":[0,0,0,0,0,0,0,0,0,0,0,0,0,0,0,0,0,0,0,0,0,0,0,0,0],"sum_hessian":[1.1163982E2,8.6239876E1,2.539994E1,1.6925653E1,6.9314224E1,3.4855216E0,1.3440132E1,4.3391087E1,2.5923136E1,8.88119E0,3.4509895E1,8.9367285E0,1.6986406E1,6.3969417E0,2.4842489E0,2.3934152E0,6.5433135E0,1.3763514E1,3.2228935E0,1.2453663E0,1.148049E0,1.264201E1,1.1215038E0,1.7471006E0,1.4757929E0],"tree_param":{"num_deleted":"0","num_feature":"17","num_nodes":"25","size_leaf_vector":"1"}},{"base_weights":[7.6912646E-3,1.1662362E0,-1.170859E0,5.8986325E-2,1.5143338E-2,-4.006398E-1,-5.9763253E-2,1.5636418E-3,-3.2340024E-2],"categories":[],"categories_nodes":[],"categories_segments":[],"categories_sizes":[],"default_left":[0,0,0,0,0,0,0,0,0],"id":21,"left_children":[1,3,5,-1,-1,7,-1,-1,-1],"loss_changes":[1.529553E2,3.0060577E-1,5.650711E-1,0E0,0E0,3.6150134E-1,0E0,0E0,0E0],"parents":[2147483647,0,0,1,1,2,2,5,5],"right_children":[2,4,6,-1,-1,8,-1,-1,-1],"split_conditions":[1.1E1,1E0,4.4825E0,5.8986325E-2,1.5143338E-2,3.7E1,-5.9763253E-2,1.5636418E-3,-3.2340024E-2],"split_indices":[15,2,0,0,0,5,0,0,0],"split_type":[0,0,0,0,0,0,0,0,0],"sum_hessian":[1.1002198E2,5.548715E1,5.4534832E1,5.427271E1,1.2144371E0,2.209879E0,5.232495E1,1.1191609E0,1.090718E0],"tree_param":{"num_deleted":"0","num_feature":"17","num_nodes":"9","size_leaf_vector":"1"}},{"base_weights":[-1.0449358E-2,1.1515882E0,-5.7936188E-2,5.828019E-2,1.3813048E-2],"categories":[],"categories_nodes":[],"categories_segments":[],"categories_sizes":[],"default_left":[0,0,0,0,0],"id":22,"left_children":[1,3,-1,-1,-1],"loss_changes":[1.45668E2,3.4370422E-1,0E0,0E0,0E0],"parents":[2147483647,0,0,1,1],"right_children":[2,4,-1,-1,-1],"split_conditions":[1.1E1,1E0,-5.7936188E-2,5.828019E-2,1.3813048E-2],"split_indices":[15,2,0,0,0],"split_type":[0,0,0,0,0],"sum_hessian":[1.07168724E2,5.326371E1,5.3905014E1,5.2097908E1,1.1658041E0],"tree_param":{"num_deleted":"0","num_feature":"17","num_nodes":"5","size_leaf_vector":"1"}},{"base_weights":[2.4450315E-2,3.597611E-1,-5.29606E-2,-6.6453743E-1,6.2687767E-1,4.5485783E-2,-5.445941E-2,1.0391245E0,-6.1639395E-2,1.0937486E0,1.2690778E-1,4.645241E-2,-6.196346E-1,9.693201E-3,5.567643E-2,3.1656038E-2,-1.9763367E-2,-7.5382435E-1,1.9027367E-2,-3.9496526E-2,-8.330007E-3,2.5026346E-2,-2.835536E-2],"categories":[],"categories_nodes":[],"categories_segments":[],"categories_sizes":[],"default_left":[0,0,0,0,0,0,0,0,0,0,0,0,0,0,0,0,0,0,0,0,0,0,0],"id":23,"left_children":[1,3,-1,5,7,-1,-1,9,11,13,15,-1,17,-1,-1,-1,-1,19,21,-1,-1,-1,-1],"loss_changes":[3.784174E1,2.2162586E1,0E0,1.2305254E1,1.8103176E1,0E0,0E0,1.8448067E0,1.425503E1,4.5034027E-1,1.1437826E0,0E0,1.4223905E0,0E0,0E0,0E0,0E0,1.5678406E-1,1.3642153E0,0E0,0E0,0E0,0E0],"parents":[2147483647,0,0,1,1,3,3,4,4,7,7,8,8,9,9,10,10,12,12,17,17,18,18],"right_children":[2,4,-1,6,8,-1,-1,10,12,14,16,-1,18,-1,-1,-1,-1,20,22,-1,-1,-1,-1],"split_conditions":[4.829E3,5E0,-5.29606E-2,2.56E2,4.4E1,4.5485783E-2,-5.445941E-2,4E0,1.75E2,1E0,2.56E2,4.645241E-2,5.5936E0,9.693201E-3,5.567643E-2,3.1656038E-2,-1.9763367E-2,2.68E2,5.8377E0,-3.9496526E-2,-8.330007E-3,2.5026346E-2,-2.835536E-2],"split_indices":[16,5,0,16,5,0,0,9,16,9,16,0,0,0,0,0,0,5,0,0,0,0,0],"split_type":[0,0,0,0,0,0,0,0,0,0,0,0,0,0,0,0,0,0,0,0,0,0,0],"sum_hessian":[1.0209418E2,7.847894E1,2.361523E1,1.5924859E1,6.2554085E1,3.140441E0,1.2784418E1,3.8808456E1,2.374563E1,3.642812E1,2.380337E0,8.316031E0,1.5429598E1,1.0157984E0,3.541232E1,1.1007588E0,1.2795783E0,1.2601558E1,2.8280401E0,1.1546418E1,1.0551392E0,1.6327876E0,1.1952527E0],"tree_param":{"num_deleted":"0","num_feature":"17","num_nodes":"23","size_leaf_vector":"1"}},{"base_weights":[5.6444756E-3,1.1282283E0,-1.1282002E0,5.7148993E-2,1.3139046E-2,-3.0932313E-1,-5.7887144E-2,4.983759E-3,-2.9153619E-2],"categories":[],"categories_nodes":[],"categories_segments":[],"categories_sizes":[],"default_left":[0,0,0,0,0,0,0,0,0],"id":24,"left_children":[1,3,5,-1,-1,7,-1,-1,-1],"loss_changes":[1.2850227E2,3.4727478E-1,8.5702515E-1,0E0,0E0,4.0672737E-1,0E0,0E0,0E0],"parents":[2147483647,0,0,1,1,2,2,5,5],"right_children":[2,4,6,-1,-1,8,-1,-1,-1],"split_conditions":[1.1E1,1E0,4.4825E0,5.7148993E-2,1.3139046E-2,2E1,-5.7887144E-2,4.983759E-3,-2.9153619E-2],"split_indices":[15,2,0,0,0,5,0,0,0],"split_type":[0,0,0,0,0,0,0,0,0],"sum_hessian":[9.895745E1,4.9728138E1,4.9229313E1,4.8579422E1,1.1487155E0,2.113614E0,4.7115696E1,1.1024197E0,1.0111945E0],"tree_param":{"num_deleted":"0","num_feature":"17","num_nodes":"9","size_leaf_vector":"1"}},{"base_weights":[-1.2189596E-2,5.6779444E-2,-1.1217407E0,-3.742273E-1,-5.7400968E-2,3.6260118E-3,-3.1720895E-2],"categories":[],"categories_nodes":[],"categories_segments":[],"categories_sizes":[],"default_left":[0,0,0,0,0,0,0],"id":25,"left_children":[1,-1,3,5,-1,-1,-1],"loss_changes":[1.2573078E2,0E0,5.563698E-1,4.1660944E-1,0E0,0E0,0E0],"parents":[2147483647,0,0,2,2,3,3],"right_children":[2,-1,4,6,-1,-1,-1],"split_conditions":[1.1E1,5.6779444E-2,4.4825E0,2.7E1,-5.7400968E-2,3.6260118E-3,-3.1720895E-2],"split_indices":[15,0,0,5,0,0,0],"split_type":[0,0,0,0,0,0,0],"sum_hessian":[9.672681E1,4.7532845E1,4.919396E1,2.1882555E0,4.7005703E1,1.0708631E0,1.1173925E0],"tree_param":{"num_deleted":"0","num_feature":"17","num_nodes":"7","size_leaf_vector":"1"}},{"base_weights":[1.5908904E-2,1.1038089E0,-1.1095923E0,5.5994786E-2,1.1202859E-2,-9.912788E-3,-5.6688976E-2],"categories":[],"categories_nodes":[],"categories_segments":[],"categories_sizes":[],"default_left":[0,0,0,0,0,0,0],"id":26,"left_children":[1,3,5,-1,-1,-1,-1],"loss_changes":[1.1344938E2,4.1576004E-1,7.7920914E-1,0E0,0E0,0E0,0E0],"parents":[2147483647,0,0,1,1,2,2],"right_children":[2,4,6,-1,-1,-1,-1],"split_conditions":[1.1E1,1E0,3.83E2,5.5994786E-2,1.1202859E-2,-9.912788E-3,-5.6688976E-2],"split_indices":[15,2,16,0,0,0,0],"split_type":[0,0,0,0,0,0,0],"sum_hessian":[9.065436E1,4.6107E1,4.454736E1,4.5010975E1,1.096021E0,1.3895085E0,4.315785E1],"tree_param":{"num_deleted":"0","num_feature":"17","num_nodes":"7","size_leaf_vector":"1"}},{"base_weights":[-1.7753575E-2,1.0929129E0,-1.0994908E0,5.546217E-2,1.2226863E-2,-1.1745679E-2,-5.6459963E-2],"categories":[],"categories_nodes":[],"categories_segments":[],"categories_sizes":[],"default_left":[0,0,0,0,0,0,0],"id":27,"left_children":[1,3,5,-1,-1,-1,-1],"loss_changes":[1.1089759E2,3.5982513E-1,9.355812E-1,0E0,0E0,0E0,0E0],"parents":[2147483647,0,0,1,1,2,2],"right_children":[2,4,6,-1,-1,-1,-1],"split_conditions":[1.1E1,1E0,4.43E2,5.546217E-2,1.2226863E-2,-1.1745679E-2,-5.6459963E-2],"split_indices":[15,2,16,0,0,0,0],"split_type":[0,0,0,0,0,0,0],"sum_hessian":[9.030302E1,4.4550625E1,4.575239E1,4.3407578E1,1.1430454E0,1.8158103E0,4.393658E1],"tree_param":{"num_deleted":"0","num_feature":"17","num_nodes":"7","size_leaf_vector":"1"}},{"base_weights":[-5.486221E-3,5.5168834E-2,-1.0893439E0,-1.312043E-2,-5.5871416E-2],"categories":[],"categories_nodes":[],"categories_segments":[],"categories_sizes":[],"default_left":[0,0,0,0,0],"id":28,"left_children":[1,-1,3,-1,-1],"loss_changes":[1.047669E2,0E0,7.3049545E-1,0E0,0E0],"parents":[2147483647,0,0,2,2],"right_children":[2,-1,4,-1,-1],"split_conditions":[1.1E1,5.5168834E-2,3.83E2,-1.312043E-2,-5.5871416E-2],"split_indices":[15,0,16,0,0],"split_type":[0,0,0,0,0],"sum_hessian":[8.517131E1,4.2091118E1,4.3080193E1,1.7547834E0,4.1325413E1],"tree_param":{"num_deleted":"0","num_feature":"17","num_nodes":"5","size_leaf_vector":"1"}},{"base_weights":[7.3760967E-3,1.0703281E0,-1.0762218E0,5.4435786E-2,8.972675E-3,-1.4603153E-2,-5.525989E-2],"categories":[],"categories_nodes":[],"categories_segments":[],"categories_sizes":[],"default_left":[0,0,0,0,0,0,0],"id":29,"left_children":[1,3,5,-1,-1,-1,-1],"loss_changes":[9.510565E1,4.8736954E-1,6.063423E-1,0E0,0E0,0E0,0E0],"parents":[2147483647,0,0,1,1,2,2],"right_children":[2,4,6,-1,-1,-1,-1],"split_conditions":[1.1E1,1E0,4.43E2,5.4435786E-2,8.972675E-3,-1.4603153E-2,-5.525989E-2],"split_indices":[15,2,16,0,0,0,0],"split_type":[0,0,0,0,0,0,0],"sum_hessian":[8.057034E1,4.0678825E1,3.989152E1,3.963861E1,1.0402122E0,1.8163493E0,3.8075172E1],"tree_param":{"num_deleted":"0","num_feature":"17","num_nodes":"7","size_leaf_vector":"1"}},{"base_weights":[-1.7610429E-2,1.0615041E0,-1.0704244E0,5.3984094E-2,1.1588641E-2,-9.728739E-3,-5.5017646E-2],"categories":[],"categories_nodes":[],"categories_segments":[],"categories_sizes":[],"default_left":[0,0,0,0,0,0,0],"id":30,"left_children":[1,3,5,-1,-1,-1,-1],"loss_changes":[9.31101E1,3.603096E-1,8.7306976E-1,0E0,0E0,0E0,0E0],"parents":[2147483647,0,0,1,1,2,2],"right_children":[2,4,6,-1,-1,-1,-1],"split_conditions":[1.1E1,1E0,3.83E2,5.3984094E-2,1.1588641E-2,-9.728739E-3,-5.5017646E-2],"split_indices":[15,2,16,0,0,0,0],"split_type":[0,0,0,0,0,0,0],"sum_hessian":[7.995527E1,3.9480373E1,4.047489E1,3.8339195E1,1.1411762E0,1.5852187E0,3.8889675E1],"tree_param":{"num_deleted":"0","num_feature":"17","num_nodes":"7","size_leaf_vector":"1"}},{"base_weights":[-2.7127307E-2,1.0507597E0,-1.0580056E0,5.3516176E-2,8.500985E-3,-5.003524E-3,-5.4475345E-2],"categories":[],"categories_nodes":[],"categories_segments":[],"categories_sizes":[],"default_left":[0,0,0,0,0,0,0],"id":31,"left_children":[1,3,5,-1,-1,-1,-1],"loss_changes":[8.78558E1,4.8423004E-1,1.1101227E0,0E0,0E0,0E0,0E0],"parents":[2147483647,0,0,1,1,2,2],"right_children":[2,4,6,-1,-1,-1,-1],"split_conditions":[1.1E1,1E0,3.83E2,5.3516176E-2,8.500985E-3,-5.003524E-3,-5.4475345E-2],"split_indices":[15,2,16,0,0,0,0],"split_type":[0,0,0,0,0,0,0],"sum_hessian":[7.706552E1,3.7664356E1,3.9401165E1,3.6635326E1,1.0290301E0,1.3874137E0,3.8013752E1],"tree_param":{"num_deleted":"0","num_feature":"17","num_nodes":"7","size_leaf_vector":"1"}},{"base_weights":[-1.8949047E-2,1.0678992E0,-1.0537688E0,2.2430649E-2,5.463148E-2,-1.2026006E-2,-5.419725E-2],"categories":[],"categories_nodes":[],"categories_segments":[],"categories_sizes":[],"default_left":[0,0,0,0,0,0,0],"id":32,"left_children":[1,3,5,-1,-1,-1,-1],"loss_changes":[8.484669E1,7.348633E-2,6.874504E-1,0E0,0E0,0E0,0E0],"parents":[2147483647,0,0,1,1,2,2],"right_children":[2,4,6,-1,-1,-1,-1],"split_conditions":[1.1E1,4E0,4.43E2,2.2430649E-2,5.463148E-2,-1.2026006E-2,-5.419725E-2],"split_indices":[15,5,16,0,0,0,0],"split_type":[0,0,0,0,0,0,0],"sum_hessian":[7.343938E1,3.580364E1,3.763574E1,2.1098468E0,3.369379E1,1.667494E0,3.5968243E1],"tree_param":{"num_deleted":"0","num_feature":"17","num_nodes":"7","size_leaf_vector":"1"}},{"base_weights":[-1.5516394E-2,1.0317873E0,-1.0375308E0,5.3939033E-2,4.9549437E-1,-1.2368531E-2,-5.3679742E-2,-1.0759317E-3,3.96215E-2],"categories":[],"categories_nodes":[],"categories_segments":[],"categories_sizes":[],"default_left":[0,0,0,0,0,0,0,0,0],"id":33,"left_children":[1,3,5,-1,7,-1,-1,-1,-1],"loss_changes":[7.71828E1,3.6320877E-1,7.74189E-1,0E0,7.4156916E-1,0E0,0E0,0E0,0E0],"parents":[2147483647,0,0,1,1,2,2,4,4],"right_children":[2,4,6,-1,8,-1,-1,-1,-1],"split_conditions":[1.1E1,3E0,3.83E2,5.3939033E-2,4E0,-1.2368531E-2,-5.3679742E-2,-1.0759317E-3,3.96215E-2],"split_indices":[15,6,16,0,6,0,0,0,0],"split_type":[0,0,0,0,0,0,0,0,0],"sum_hessian":[7.010909E1,3.462142E1,3.5487675E1,3.0902039E1,3.719382E0,1.8920591E0,3.3595615E1,1.6952345E0,2.0241475E0],"tree_param":{"num_deleted":"0","num_feature":"17","num_nodes":"9","size_leaf_vector":"1"}},{"base_weights":[-1.6829291E-2,2.69652E-1,-4.7853407E-2,-6.799892E-1,5.3657126E-1,2.2844667E-2,-4.89279E-2,8.852318E-1,-1.6705087E-1,4.186988E-1,1.0126054E0,6.352217E-1,-5.880965E-1,8.954541E-1,-2.7833486E-2,5.2466758E-2,1.2372227E-2,-2.8385704E-3,4.2463865E-2,-7.566758E-1,-5.6260645E-2,5.088829E-2,9.370353E-3,-2.0008313E-2,-4.6364482E-2,1.439993E-2,-1.6505769E-2],"categories":[],"categories_nodes":[],"categories_segments":[],"categories_sizes":[],"default_left":[0,0,0,0,0,0,0,0,0,0,0,0,0,0,0,0,0,0,0,0,0,0,0,0,0,0,0],"id":34,"left_children":[1,3,-1,5,7,-1,-1,9,11,13,15,17,19,21,-1,-1,-1,-1,-1,23,25,-1,-1,-1,-1,-1,-1],"loss_changes":[1.8524748E1,1.3737816E1,0E0,4.525916E0,1.0388137E1,0E0,0E0,1.2440414E0,5.3296027E0,4.0907106E0,3.4022522E-1,8.674226E-1,8.6665916E-1,2.918234E-1,0E0,0E0,0E0,0E0,0E0,9.242582E-2,4.2703837E-1,0E0,0E0,0E0,0E0,0E0,0E0],"parents":[2147483647,0,0,1,1,3,3,4,4,7,7,8,8,9,9,10,10,11,11,12,12,13,13,19,19,20,20],"right_children":[2,4,-1,6,8,-1,-1,10,12,14,16,18,20,22,-1,-1,-1,-1,-1,24,26,-1,-1,-1,-1,-1,-1],"split_conditions":[4.829E3,5E0,-4.7853407E-2,2.56E2,5.8E1,2.2844667E-2,-4.89279E-2,1E0,1.16E2,4.43E2,4E0,1.03E2,5.5272E0,5.1134E0,-2.7833486E-2,5.2466758E-2,1.2372227E-2,-2.8385704E-3,4.2463865E-2,5.2128E0,1E0,5.088829E-2,9.370353E-3,-2.0008313E-2,-4.6364482E-2,1.439993E-2,-1.6505769E-2],"split_indices":[16,5,0,16,5,0,0,3,16,16,9,5,0,0,0,0,0,0,0,0,7,0,0,0,0,0,0],"split_type":[0,0,0,0,0,0,0,0,0,0,0,0,0,0,0,0,0,0,0,0,0,0,0,0,0,0,0],"sum_hessian":[6.681487E1,5.1757954E1,1.5056918E1,1.1016405E1,4.074155E1,2.1810768E0,8.835329E0,2.7069765E1,1.36717825E1,6.725043E0,2.0344723E1,4.5305204E0,9.141262E0,4.5721374E0,2.1529057E0,1.9058474E1,1.2862484E0,1.2439367E0,3.286584E0,6.62009E0,2.5211723E0,3.5256689E0,1.0464684E0,3.2255435E0,3.3945463E0,1.0941204E0,1.4270519E0],"tree_param":{"num_deleted":"0","num_feature":"17","num_nodes":"27","size_leaf_vector":"1"}},{"base_weights":[-1.7592479E-2,5.230551E-2,-1.0230911E0,-5.0607123E-3,-5.332088E-2],"categories":[],"categories_nodes":[],"categories_segments":[],"categories_sizes":[],"default_left":[0,0,0,0,0],"id":35,"left_children":[1,-1,3,-1,-1],"loss_changes":[7.32122E1,0E0,1.2971916E0,0E0,0E0],"parents":[2147483647,0,0,2,2],"right_children":[2,-1,4,-1,-1],"split_conditions":[1.1E1,5.230551E-2,4.4825E0,-5.0607123E-3,-5.332088E-2],"split_indices":[15,0,0,0,0],"split_type":[0,0,0,0,0],"sum_hessian":[6.645064E1,3.2271107E1,3.417953E1,1.684015E0,3.2495514E1],"tree_param":{"num_deleted":"0","num_feature":"17","num_nodes":"5","size_leaf_vector":"1"}},{"base_weights":[1.4322299E-2,1.0381538E0,-1.0118656E0,1.8352767E-2,5.333236E-2,4.6903882E-4,-5.285975E-2],"categories":[],"categories_nodes":[],"categories_segments":[],"categories_sizes":[],"default_left":[0,0,0,0,0,0,0],"id":36,"left_children":[1,3,5,-1,-1,-1,-1],"loss_changes":[6.675586E1,2.1653366E-1,1.4792213E0,0E0,0E0,0E0,0E0],"parents":[2147483647,0,0,1,1,2,2],"right_children":[2,4,6,-1,-1,-1,-1],"split_conditions":[1.1E1,4E0,4.4825E0,1.8352767E-2,5.333236E-2,4.6903882E-4,-5.285975E-2],"split_indices":[15,5,0,0,0,0,0],"split_type":[0,0,0,0,0,0,0],"sum_hessian":[6.1538227E1,3.0798645E1,3.0739582E1,1.8197875E0,2.8978857E1,1.3401333E0,2.9399448E1],"tree_param":{"num_deleted":"0","num_feature":"17","num_nodes":"7","size_leaf_vector":"1"}},{"base_weights":[-7.3782583E-3,9.9832225E-1,-1.0071892E0,5.2668728E-2,4.212459E-1,-6.286225E-3,-5.257327E-2,-5.157394E-3,3.7303533E-2],"categories":[],"categories_nodes":[],"categories_segments":[],"categories_sizes":[],"default_left":[0,0,0,0,0,0,0,0,0],"id":37,"left_children":[1,3,5,-1,7,-1,-1,-1,-1],"loss_changes":[6.1809658E1,5.2996635E-1,1.0707245E0,0E0,8.1546694E-1,0E0,0E0,0E0,0E0],"parents":[2147483647,0,0,1,1,2,2,4,4],"right_children":[2,4,6,-1,8,-1,-1,-1,-1],"split_conditions":[1.1E1,3E0,4.4825E0,5.2668728E-2,4E0,-6.286225E-3,-5.257327E-2,-5.157394E-3,3.7303533E-2],"split_indices":[15,6,0,0,6,0,0,0,0],"split_type":[0,0,0,0,0,0,0,0,0],"sum_hessian":[5.9470943E1,2.964889E1,2.9822052E1,2.6313276E1,3.3356128E0,1.6099606E0,2.8212091E1,1.5369029E0,1.7987099E0],"tree_param":{"num_deleted":"0","num_feature":"17","num_nodes":"9","size_leaf_vector":"1"}},{"base_weights":[-9.666224E-3,9.9006945E-1,-1.0002486E0,5.2345168E-2,4.16091E-1,-4.8830607E-3,-5.229965E-2,-4.117628E-3,3.6695275E-2],"categories":[],"categories_nodes":[],"categories_segments":[],"categories_sizes":[],"default_left":[0,0,0,0,0,0,0,0,0],"id":38,"left_children":[1,3,5,-1,7,-1,-1,-1,-1],"loss_changes":[5.857128E1,5.247898E-1,1.124239E0,0E0,7.435321E-1,0E0,0E0,0E0,0E0],"parents":[2147483647,0,0,1,1,2,2,4,4],"right_children":[2,4,6,-1,8,-1,-1,-1,-1],"split_conditions":[1.1E1,3E0,4.4825E0,5.2345168E-2,4E0,-4.8830607E-3,-5.229965E-2,-4.117628E-3,3.6695275E-2],"split_indices":[15,6,0,0,6,0,0,0,0],"split_type":[0,0,0,0,0,0,0,0,0],"sum_hessian":[5.7143772E1,2.8440742E1,2.870303E1,2.5128628E1,3.3121145E0,1.5357598E0,2.7167269E1,1.5780549E0,1.7340596E0],"tree_param":{"num_deleted":"0","num_feature":"17","num_nodes":"9","size_leaf_vector":"1"}},{"base_weights":[3.8699585E-3,5.2535977E-2,-9.968184E-1,-1.2258384E-2,-5.203264E-2],"categories":[],"categories_nodes":[],"categories_segments":[],"categories_sizes":[],"default_left":[0,0,0,0,0],"id":39,"left_children":[1,-1,3,-1,-1],"loss_changes":[5.949277E1,0E0,7.0160294E-1,0E0,0E0],"parents":[2147483647,0,0,2,2],"right_children":[2,-1,4,-1,-1],"split_conditions":[1.1E1,5.2535977E-2,4.4825E0,-1.2258384E-2,-5.203264E-2],"split_indices":[15,0,0,0,0],"split_type":[0,0,0,0,0],"sum_hessian":[5.479138E1,2.6753628E1,2.8037754E1,1.9082937E0,2.6129461E1],"tree_param":{"num_deleted":"0","num_feature":"17","num_nodes":"5","size_leaf_vector":"1"}},{"base_weights":[-2.5398688E-2,2.650856E-1,-4.5496132E-2,-6.2729394E-1,4.981911E-1,1.7414382E-2,-4.5792207E-2,8.876436E-1,-2.1101083E-1,4.685648E-2,8.171581E-3,6.401695E-1,-6.066582E-1,4.304194E-3,3.8664136E-2,-7.234754E-1,-2.240114E-3,-3.89516E-2,-9.468599E-3],"categories":[],"categories_nodes":[],"categories_segments":[],"categories_sizes":[],"default_left":[0,0,0,0,0,0,0,0,0,0,0,0,0,0,0,0,0,0,0],"id":40,"left_children":[1,3,-1,5,7,-1,-1,9,11,-1,-1,13,15,-1,-1,17,-1,-1,-1],"loss_changes":[1.4191301E1,8.9754925E0,0E0,2.8716633E0,9.461343E0,0E0,0E0,6.3051224E-1,4.6688213E0,0E0,0E0,2.6680148E-1,5.7080364E-1,0E0,0E0,7.628465E-2,0E0,0E0,0E0],"parents":[2147483647,0,0,1,1,3,3,4,4,7,7,8,8,11,11,12,12,15,15],"right_children":[2,4,-1,6,8,-1,-1,10,12,-1,-1,14,16,-1,-1,18,-1,-1,-1],"split_conditions":[4.829E3,5E0,-4.5496132E-2,2.56E2,5.8E1,1.7414382E-2,-4.5792207E-2,4E0,1.16E2,4.685648E-2,8.171581E-3,5.2944E0,5.5936E0,4.304194E-3,3.8664136E-2,5E0,-2.240114E-3,-3.89516E-2,-9.468599E-3],"split_indices":[16,5,0,16,5,0,0,9,16,0,0,0,0,0,0,6,0,0,0],"split_type":[0,0,0,0,0,0,0,0,0,0,0,0,0,0,0,0,0,0,0],"sum_hessian":[5.3293125E1,4.064523E1,1.2647892E1,8.068021E0,3.257721E1,1.794347E0,6.2736735E0,2.0866777E1,1.1710432E1,1.9256937E1,1.6098412E0,3.5198765E0,8.190556E0,1.000786E0,2.5190904E0,6.5426087E0,1.6479472E0,5.5108047E0,1.031804E0],"tree_param":{"num_deleted":"0","num_feature":"17","num_nodes":"19","size_leaf_vector":"1"}},{"base_weights":[2.1813386E-3,2.8546298E-1,-4.4388123E-2,-6.18562E-1,5.287543E-1,1.706378E-2,-4.5145128E-2,8.8726556E-1,-1.5153113E-1,4.6654534E-2,6.208291E-3,3.1039981E-2,-5.2686584E-1,-6.940052E-1,9.304715E-3,-1.681116E-2,-4.299352E-2,4.0322747E-3,-3.3284375E-3],"categories":[],"categories_nodes":[],"categories_segments":[],"categories_sizes":[],"default_left":[0,0,0,0,0,0,0,0,0,0,0,0,0,0,0,0,0,0,0],"id":41,"left_children":[1,3,-1,5,7,-1,-1,9,11,-1,-1,-1,13,15,17,-1,-1,-1,-1],"loss_changes":[1.331682E1,9.138461E0,0E0,2.7524734E0,7.964839E0,0E0,0E0,6.2449265E-1,3.7867358E0,0E0,0E0,0E0,7.7468085E-1,9.950185E-2,2.1736942E-2,0E0,0E0,0E0,0E0],"parents":[2147483647,0,0,1,1,3,3,4,4,7,7,8,8,12,12,13,13,14,14],"right_children":[2,4,-1,6,8,-1,-1,10,12,-1,-1,-1,14,16,18,-1,-1,-1,-1],"split_conditions":[4.829E3,5E0,-4.4388123E-2,2.56E2,5.8E1,1.706378E-2,-4.5145128E-2,3E0,1.16E2,4.6654534E-2,6.208291E-3,3.1039981E-2,5.5272E0,5.2059E0,5.6626E0,-1.681116E-2,-4.299352E-2,4.0322747E-3,-3.3284375E-3],"split_indices":[16,5,0,16,5,0,0,6,16,0,0,0,0,0,0,0,0,0,0],"split_type":[0,0,0,0,0,0,0,0,0,0,0,0,0,0,0,0,0,0,0],"sum_hessian":[5.0817345E1,3.906245E1,1.1754893E1,7.9562073E0,3.1106243E1,1.7725255E0,6.1836815E0,2.0171555E1,1.0934689E1,1.8818705E1,1.3528515E0,3.3622196E0,7.5724688E0,5.548479E0,2.02399E0,2.7163098E0,2.8321693E0,1.0107385E0,1.0132515E0],"tree_param":{"num_deleted":"0","num_feature":"17","num_nodes":"19","size_leaf_vector":"1"}},{"base_weights":[-2.3823233E-2,9.618392E-1,-9.734516E-1,5.1337E-2,3.6469823E-1,-1.0501311E-2,-5.1292755E-2,-7.0980205E-3,3.524437E-2],"categories":[],"categories_nodes":[],"categories_segments":[],"categories_sizes":[],"default_left":[0,0,0,0,0,0,0,0,0],"id":42,"left_children":[1,3,5,-1,7,-1,-1,-1,-1],"loss_changes":[4.879937E1,6.1746025E-1,8.4633064E-1,0E0,7.9983425E-1,0E0,0E0,0E0,0E0],"parents":[2147483647,0,0,1,1,2,2,4,4],"right_children":[2,4,6,-1,8,-1,-1,-1,-1],"split_conditions":[1.1E1,3E0,4.43E2,5.1337E-2,4E0,-1.0501311E-2,-5.1292755E-2,-7.0980205E-3,3.524437E-2],"split_indices":[15,6,16,0,6,0,0,0,0],"split_type":[0,0,0,0,0,0,0,0,0],"sum_hessian":[5.0135048E1,2.459447E1,2.5540577E1,2.1534544E1,3.0599256E0,1.962232E0,2.3578344E1,1.4632883E0,1.5966374E0],"tree_param":{"num_deleted":"0","num_feature":"17","num_nodes":"9","size_leaf_vector":"1"}},{"base_weights":[-3.930905E-3,9.552654E-1,-9.619836E-1,5.1059563E-2,3.8860697E-1,-7.418304E-3,-5.0920613E-2,-5.7777613E-3,3.5889592E-2],"categories":[],"categories_nodes":[],"categories_segments":[],"categories_sizes":[],"default_left":[0,0,0,0,0,0,0,0,0],"id":43,"left_children":[1,3,5,-1,7,-1,-1,-1,-1],"loss_changes":[4.5601864E1,5.29583E-1,9.886246E-1,0E0,7.797845E-1,0E0,0E0,0E0,0E0],"parents":[2147483647,0,0,1,1,2,2,4,4],"right_children":[2,4,6,-1,8,-1,-1,-1,-1],"split_conditions":[1.1E1,3E0,4.4825E0,5.1059563E-2,4E0,-7.418304E-3,-5.0920613E-2,-5.7777613E-3,3.5889592E-2],"split_indices":[15,6,0,0,6,0,0,0,0],"split_type":[0,0,0,0,0,0,0,0,0],"sum_hessian":[4.762332E1,2.379891E1,2.382441E1,2.0600132E1,3.198778E0,1.7805656E0,2.2043842E1,1.5199175E0,1.6788604E0],"tree_param":{"num_deleted":"0","num_feature":"17","num_nodes":"9","size_leaf_vector":"1"}},{"base_weights":[3.633328E-2,3.169295E-1,-4.3311734E-2,6.06126E-1,-2.4663578E-1,2.359674E-1,4.5343693E-2,3.5873607E-2,-3.5532538E-2,4.6029698E-2,-6.5929943E-1,-3.7407264E-2,-6.8445154E-3],"categories":[],"categories_nodes":[],"categories_segments":[],"categories_sizes":[],"default_left":[0,0,0,0,0,0,0,0,0,0,0,0,0],"id":44,"left_children":[1,3,-1,5,7,9,-1,-1,-1,-1,11,-1,-1],"loss_changes":[1.1993157E1,6.021719E0,0E0,2.468977E0,6.294084E0,8.057185E0,0E0,0E0,0E0,0E0,1.6910815E-1,0E0,0E0],"parents":[2147483647,0,0,1,1,3,3,4,4,5,5,10,10],"right_children":[2,4,-1,6,8,10,-1,-1,-1,-1,12,-1,-1],"split_conditions":[4.829E3,1E0,-4.3311734E-2,1E0,1.75E2,3.83E2,4.5343693E-2,3.5873607E-2,-3.5532538E-2,4.6029698E-2,3E0,-3.7407264E-2,-6.8445154E-3],"split_indices":[16,4,0,3,16,16,0,0,0,0,9,0,0],"split_type":[0,0,0,0,0,0,0,0,0,0,0,0,0],"sum_hessian":[4.5271633E1,3.5030106E1,1.0241529E1,2.310046E1,1.1929644E1,1.11552515E1,1.1945209E1,3.6986146E0,8.2310295E0,6.3052354E0,4.850016E0,3.7757673E0,1.0742487E0],"tree_param":{"num_deleted":"0","num_feature":"17","num_nodes":"13","size_leaf_vector":"1"}},{"base_weights":[-4.8692096E-3,4.914159E-2,-9.59687E-1,-9.048822E-3,-5.0533593E-2],"categories":[],"categories_nodes":[],"categories_segments":[],"categories_sizes":[],"default_left":[0,0,0,0,0],"id":45,"left_children":[1,-1,3,-1,-1],"loss_changes":[4.3790092E1,0E0,7.5435257E-1,0E0,0E0],"parents":[2147483647,0,0,2,2],"right_children":[2,-1,4,-1,-1],"split_conditions":[1.1E1,4.914159E-2,4.43E2,-9.048822E-3,-5.0533593E-2],"split_indices":[15,0,16,0,0],"split_type":[0,0,0,0,0],"sum_hessian":[4.4433186E1,2.1826086E1,2.26071E1,1.6687826E0,2.0938318E1],"tree_param":{"num_deleted":"0","num_feature":"17","num_nodes":"5","size_leaf_vector":"1"}},{"base_weights":[6.2374435E-3,9.761423E-1,-9.4978094E-1,9.740099E-3,5.0871562E-2,-2.2042731E-3,-5.014664E-2],"categories":[],"categories_nodes":[],"categories_segments":[],"categories_sizes":[],"default_left":[0,0,0,0,0,0,0],"id":46,"left_children":[1,3,5,-1,-1,-1,-1],"loss_changes":[4.1102146E1,5.115566E-1,1.0305786E0,0E0,0E0,0E0,0E0],"parents":[2147483647,0,0,1,1,2,2],"right_children":[2,4,6,-1,-1,-1,-1],"split_conditions":[1.1E1,4E0,4.4825E0,9.740099E-3,5.0871562E-2,-2.2042731E-3,-5.014664E-2],"split_indices":[15,5,0,0,0,0,0],"split_type":[0,0,0,0,0,0,0],"sum_hessian":[4.2327217E1,2.1000565E1,2.1326653E1,1.3410444E0,1.965952E1,1.2836134E0,2.004304E1],"tree_param":{"num_deleted":"0","num_feature":"17","num_nodes":"7","size_leaf_vector":"1"}},{"base_weights":[2.3451352E-3,5.0818384E-2,-9.472802E-1,-7.467061E-3,-5.0120898E-2],"categories":[],"categories_nodes":[],"categories_segments":[],"categories_sizes":[],"default_left":[0,0,0,0,0],"id":47,"left_children":[1,-1,3,-1,-1],"loss_changes":[4.2236343E1,0E0,8.4688187E-1,0E0,0E0],"parents":[2147483647,0,0,2,2],"right_children":[2,-1,4,-1,-1],"split_conditions":[1.1E1,5.0818384E-2,4.4825E0,-7.467061E-3,-5.0120898E-2],"split_indices":[15,0,0,0,0],"split_type":[0,0,0,0,0],"sum_hessian":[4.1861958E1,2.0210566E1,2.1651394E1,1.6391103E0,2.0012283E1],"tree_param":{"num_deleted":"0","num_feature":"17","num_nodes":"5","size_leaf_vector":"1"}},{"base_weights":[-1.2331225E-2,2.566884E-1,-4.2056043E-2,-6.059628E-1,4.8652077E-1,1.1805254E-2,-4.4317365E-2,8.5181814E-1,-1.055481E-1,4.5328945E-2,4.77649E-3,5.9309685E-1,-4.8072097E-1,9.50073E-3,3.460155E-2,-6.164359E-1,4.1243234E-3,-1.694914E-2,-4.4074696E-2],"categories":[],"categories_nodes":[],"categories_segments":[],"categories_sizes":[],"default_left":[0,0,0,0,0,0,0,0,0,0,0,0,0,0,0,0,0,0,0],"id":48,"left_children":[1,3,-1,5,7,-1,-1,9,11,-1,-1,13,15,-1,-1,17,-1,-1,-1],"loss_changes":[9.116084E0,6.421671E0,0E0,1.8493469E0,5.4873986E0,0E0,0E0,5.5714226E-1,3.0142424E0,0E0,0E0,3.142643E-2,6.108602E-1,0E0,0E0,1.4404964E-1,0E0,0E0,0E0],"parents":[2147483647,0,0,1,1,3,3,4,4,7,7,8,8,11,11,12,12,15,15],"right_children":[2,4,-1,6,8,-1,-1,10,12,-1,-1,14,16,-1,-1,18,-1,-1,-1],"split_conditions":[4.829E3,5E0,-4.2056043E-2,4.7124E0,4.7E1,1.1805254E-2,-4.4317365E-2,4E0,1.75E2,4.5328945E-2,4.77649E-3,1.03E2,5.5936E0,9.50073E-3,3.460155E-2,3.034E3,4.1243234E-3,-1.694914E-2,-4.4074696E-2],"split_indices":[16,5,0,0,5,0,0,9,16,0,0,5,0,0,0,16,0,0,0],"split_type":[0,0,0,0,0,0,0,0,0,0,0,0,0,0,0,0,0,0,0],"sum_hessian":[3.891816E1,2.9902342E1,9.015816E0,5.9464474E0,2.3955894E1,1.5248497E0,4.421598E0,1.4543849E1,9.4120455E0,1.3376567E1,1.1672823E0,3.0854583E0,6.326587E0,1.1836382E0,1.90182E0,5.021949E0,1.304638E0,3.5670211E0,1.4549278E0],"tree_param":{"num_deleted":"0","num_feature":"17","num_nodes":"19","size_leaf_vector":"1"}},{"base_weights":[3.4195802E-3,9.5824814E-1,-9.2756695E-1,8.170634E-3,5.019463E-2,-2.077394E-3,-4.934954E-2],"categories":[],"categories_nodes":[],"categories_segments":[],"categories_sizes":[],"default_left":[0,0,0,0,0,0,0],"id":49,"left_children":[1,3,5,-1,-1,-1,-1],"loss_changes":[3.553313E1,5.5182266E-1,1.0246906E0,0E0,0E0,0E0,0E0],"parents":[2147483647,0,0,1,1,2,2],"right_children":[2,4,6,-1,-1,-1,-1],"split_conditions":[1.1E1,4E0,3.83E2,8.170634E-3,5.019463E-2,-2.077394E-3,-4.934954E-2],"split_indices":[15,5,16,0,0,0,0],"split_type":[0,0,0,0,0,0,0],"sum_hessian":[3.797291E1,1.8731958E1,1.9240955E1,1.2660221E0,1.7465937E1,1.316148E0,1.7924807E1],"tree_param":{"num_deleted":"0","num_feature":"17","num_nodes":"7","size_leaf_vector":"1"}},{"base_weights":[1.1989526E-2,4.754855E-2,-9.157886E-1,3.9324732E-3,-4.923495E-2],"categories":[],"categories_nodes":[],"categories_segments":[],"categories_sizes":[],"default_left":[0,0,0,0,0],"id":50,"left_children":[1,-1,3,-1,-1],"loss_changes":[3.321671E1,0E0,1.39217E0,0E0,0E0],"parents":[2147483647,0,0,2,2],"right_children":[2,-1,4,-1,-1],"split_conditions":[1.1E1,4.754855E-2,4.4825E0,3.9324732E-3,-4.923495E-2],"split_indices":[15,0,0,0,0],"split_type":[0,0,0,0,0],"sum_hessian":[3.612932E1,1.7943819E1,1.81855E1,1.1693536E0,1.7016146E1],"tree_param":{"num_deleted":"0","num_feature":"17","num_nodes":"5","size_leaf_vector":"1"}},{"base_weights":[-1.3350627E-2,8.900851E-1,-9.099065E-1,4.9154516E-2,2.0822492E-1,-4.787046E-4,-4.9000233E-2,-1.4961201E-2,3.0832967E-2],"categories":[],"categories_nodes":[],"categories_segments":[],"categories_sizes":[],"default_left":[0,0,0,0,0,0,0,0,0],"id":51,"left_children":[1,3,5,-1,7,-1,-1,-1,-1],"loss_changes":[2.9586773E1,9.495764E-1,1.1472244E0,0E0,9.0027183E-1,0E0,0E0,0E0,0E0],"parents":[2147483647,0,0,1,1,2,2,4,4],"right_children":[2,4,6,-1,8,-1,-1,-1,-1],"split_conditions":[1.1E1,3E0,3.83E2,4.9154516E-2,4E0,-4.787046E-4,-4.9000233E-2,-1.4961201E-2,3.0832967E-2],"split_indices":[15,6,16,0,6,0,0,0,0],"split_type":[0,0,0,0,0,0,0,0,0],"sum_hessian":[3.4527866E1,1.7201542E1,1.7326323E1,1.4748131E1,2.453411E0,1.3336518E0,1.5992671E1,1.213329E0,1.240082E0],"tree_param":{"num_deleted":"0","num_feature":"17","num_nodes":"9","size_leaf_vector":"1"}},{"base_weights":[-3.0862104E-2,4.0856668E-1,-5.912115E-1,5.6240255E-1,-3.0457366E-2,3.3415297E-1,-8.3147305E-1,2.2846748E-1,8.362231E-1,-1.1185605E-2,3.0008046E-2,-4.559098E-2,-4.395067E-1,3.983054E-2,-3.1313263E-2,1.3148442E-2,4.5174677E-2,-2.8057424E-2,-9.406581E-3],"categories":[],"categories_nodes":[],"categories_segments":[],"categories_sizes":[],"default_left":[0,0,0,0,0,0,0,0,0,0,0,0,0,0,0,0,0,0,0],"id":52,"left_children":[1,3,5,7,-1,9,11,13,15,-1,-1,-1,17,-1,-1,-1,-1,-1,-1],"loss_changes":[8.867367E0,3.5090785E0,3.791916E0,1.4630222E0,0E0,7.2358125E-1,3.4475327E-3,5.1248293E0,1.3120508E-1,0E0,0E0,0E0,2.0222366E-2,0E0,0E0,0E0,0E0,0E0,0E0],"parents":[2147483647,0,0,1,1,2,2,3,3,5,5,6,6,7,7,8,8,12,12],"right_children":[2,4,6,8,-1,10,12,14,16,-1,-1,-1,18,-1,-1,-1,-1,-1,-1],"split_conditions":[1E0,4.829E3,1.75E2,1E0,-3.0457366E-2,5.484E0,5.5272E0,6.5E2,4.109E3,-1.1185605E-2,3.0008046E-2,-4.559098E-2,1E0,3.983054E-2,-3.1313263E-2,1.3148442E-2,4.5174677E-2,-2.8057424E-2,-9.406581E-3],"split_indices":[4,16,16,3,0,0,0,16,16,0,0,0,1,0,0,0,0,0,0],"split_type":[0,0,0,0,0,0,0,0,0,0,0,0,0,0,0,0,0,0,0],"sum_hessian":[3.4031025E1,1.9225311E1,1.4805714E1,1.7089483E1,2.1358292E0,2.9712381E0,1.18344755E1,8.526026E0,8.563457E0,1.0106761E0,1.960562E0,8.720623E0,3.1138525E0,5.162498E0,3.3635273E0,1.414944E0,7.148513E0,1.2679634E0,1.8458892E0],"tree_param":{"num_deleted":"0","num_feature":"17","num_nodes":"19","size_leaf_vector":"1"}},{"base_weights":[7.3772445E-3,9.3634856E-1,-9.0643615E-1,5.5221203E-3,4.941771E-2,2.585049E-3,-4.890724E-2],"categories":[],"categories_nodes":[],"categories_segments":[],"categories_sizes":[],"default_left":[0,0,0,0,0,0,0],"id":53,"left_children":[1,3,5,-1,-1,-1,-1],"loss_changes":[2.9635624E1,6.3424015E-1,1.260006E0,0E0,0E0,0E0,0E0],"parents":[2147483647,0,0,1,1,2,2],"right_children":[2,4,6,-1,-1,-1,-1],"split_conditions":[1.1E1,4E0,4.4825E0,5.5221203E-3,4.941771E-2,2.585049E-3,-4.890724E-2],"split_indices":[15,5,0,0,0,0,0],"split_type":[0,0,0,0,0,0,0],"sum_hessian":[3.291055E1,1.6307693E1,1.6602858E1,1.151072E0,1.5156621E1,1.1754925E0,1.5427365E1],"tree_param":{"num_deleted":"0","num_feature":"17","num_nodes":"7","size_leaf_vector":"1"}},{"base_weights":[1.2337376E-4,4.6393137E-2,-8.914797E-1,3.3061707E-4,-4.817879E-2],"categories":[],"categories_nodes":[],"categories_segments":[],"categories_sizes":[],"default_left":[0,0,0,0,0],"id":54,"left_children":[1,-1,3,-1,-1],"loss_changes":[2.7735813E1,0E0,1.1134777E0,0E0,0E0],"parents":[2147483647,0,0,2,2],"right_children":[2,-1,4,-1,-1],"split_conditions":[1.1E1,4.6393137E-2,4.4825E0,3.3061707E-4,-4.817879E-2],"split_indices":[15,0,0,0,0],"split_type":[0,0,0,0,0],"sum_hessian":[3.1530762E1,1.5432315E1,1.6098448E1,1.2637959E0,1.4834652E1],"tree_param":{"num_deleted":"0","num_feature":"17","num_nodes":"5","size_leaf_vector":"1"}},{"base_weights":[2.0567605E-2,9.1936624E-1,-8.907451E-1,4.8608538E-2,3.7212342E-1,-3.2726508E-3,-4.785365E-2,2.6187504E-2,1.7289658E-3],"categories":[],"categories_nodes":[],"categories_segments":[],"categories_sizes":[],"default_left":[0,0,0,0,0,0,0,0,0],"id":55,"left_children":[1,3,5,-1,7,-1,-1,-1,-1],"loss_changes":[2.5700693E1,9.439373E-2,7.9084015E-1,0E0,1.359081E-1,0E0,0E0,0E0,0E0],"parents":[2147483647,0,0,1,1,2,2,4,4],"right_children":[2,4,6,-1,8,-1,-1,-1,-1],"split_conditions":[1.1E1,4.589E3,4.4825E0,4.8608538E-2,5.2405E0,-3.2726508E-3,-4.785365E-2,2.6187504E-2,1.7289658E-3],"split_indices":[15,16,0,0,0,0,0,0,0],"split_type":[0,0,0,0,0,0,0,0,0],"sum_hessian":[2.937746E1,1.47858305E1,1.459163E1,1.2776511E1,2.009319E0,1.2332746E0,1.33583555E1,1.0058407E0,1.0034783E0],"tree_param":{"num_deleted":"0","num_feature":"17","num_nodes":"9","size_leaf_vector":"1"}},{"base_weights":[-1.6568262E-2,4.1643918E-1,-5.733499E-1,5.788464E-1,-2.927952E-2,3.2177913E-1,-4.017117E-2,2.5346738E-1,4.2012807E-2,3.0746758E-2,-9.711596E-3,4.1769013E-2,-5.295033E-1,-3.0110976E-2,-8.79915E-3],"categories":[],"categories_nodes":[],"categories_segments":[],"categories_sizes":[],"default_left":[0,0,0,0,0,0,0,0,0,0,0,0,0,0,0],"id":56,"left_children":[1,3,5,7,-1,9,-1,11,-1,-1,-1,-1,13,-1,-1],"loss_changes":[7.450581E0,3.1716077E0,3.040238E0,1.1038322E0,0E0,6.4523786E-1,0E0,4.2371206E0,0E0,0E0,0E0,0E0,1.0368824E-3,0E0,0E0],"parents":[2147483647,0,0,1,1,2,2,3,3,5,5,7,7,12,12],"right_children":[2,4,6,8,-1,10,-1,12,-1,-1,-1,-1,14,-1,-1],"split_conditions":[1E0,4.829E3,1.75E2,1E0,-2.927952E-2,2E0,-4.017117E-2,3.83E2,4.2012807E-2,3.0746758E-2,-9.711596E-3,4.1769013E-2,2E0,-3.0110976E-2,-8.79915E-3],"split_indices":[4,16,16,3,0,6,0,16,0,0,0,0,9,0,0],"split_type":[0,0,0,0,0,0,0,0,0,0,0,0,0,0,0],"sum_hessian":[2.8913301E1,1.6406261E1,1.250704E1,1.4481458E1,1.9248037E0,2.4758499E0,1.0031191E1,7.328823E0,7.1526346E0,1.456611E0,1.0192387E0,4.1658087E0,3.1630144E0,2.0399249E0,1.1230896E0],"tree_param":{"num_deleted":"0","num_feature":"17","num_nodes":"15","size_leaf_vector":"1"}},{"base_weights":[5.235268E-2,4.8741758E-2,-8.561533E-1,2.041437E-3,-4.7457542E-2],"categories":[],"categories_nodes":[],"categories_segments":[],"categories_sizes":[],"default_left":[0,0,0,0,0],"id":57,"left_children":[1,-1,3,-1,-1],"loss_changes":[2.4726082E1,0E0,1.2812405E0,0E0,0E0],"parents":[2147483647,0,0,2,2],"right_children":[2,-1,4,-1,-1],"split_conditions":[1.1E1,4.8741758E-2,4.4825E0,2.041437E-3,-4.7457542E-2],"split_indices":[15,0,0,0,0],"split_type":[0,0,0,0,0],"sum_hessian":[2.750736E1,1.3612469E1,1.3894892E1,1.3579663E0,1.2536925E1],"tree_param":{"num_deleted":"0","num_feature":"17","num_nodes":"5","size_leaf_vector":"1"}},{"base_weights":[-1.599149E-2,4.4491008E-1,-5.803063E-1,5.855665E-1,-2.5529502E-2,2.9124123E-1,-8.042581E-1,-1.7564845E-1,7.4144495E-1,1.0519198E-3,2.1884E-2,-4.2521726E-2,-1.407662E-2,1.5645502E-2,-2.7394071E-2,4.628931E-2,2.5215805E-1,2.7523661E-2,-4.950225E-3],"categories":[],"categories_nodes":[],"categories_segments":[],"categories_sizes":[],"default_left":[0,0,0,0,0,0,0,0,0,0,0,0,0,0,0,0,0,0,0],"id":58,"left_children":[1,3,5,7,-1,9,11,13,15,-1,-1,-1,-1,-1,-1,-1,17,-1,-1],"loss_changes":[7.3835316E0,2.40168E0,2.7228284E0,1.8037233E0,0E0,1.2297365E-1,1.183176E-2,7.544114E-1,8.396988E-1,0E0,0E0,0E0,0E0,0E0,0E0,0E0,5.395508E-1,0E0,0E0],"parents":[2147483647,0,0,1,1,2,2,3,3,5,5,6,6,7,7,8,8,16,16],"right_children":[2,4,6,8,-1,10,12,14,16,-1,-1,-1,-1,-1,-1,-1,18,-1,-1],"split_conditions":[1E0,4.829E3,1.75E2,5E0,-2.5529502E-2,1E0,1.5E2,9E2,4.4E1,1.0519198E-3,2.1884E-2,-4.2521726E-2,-1.407662E-2,1.5645502E-2,-2.7394071E-2,4.628931E-2,1.75E2,2.7523661E-2,-4.950225E-3],"split_indices":[4,16,16,5,0,7,5,16,5,0,0,0,0,0,0,0,16,0,0],"split_type":[0,0,0,0,0,0,0,0,0,0,0,0,0,0,0,0,0,0,0],"sum_hessian":[2.6395325E1,1.4645374E1,1.1749951E1,1.3103594E1,1.5417804E0,2.3406076E0,9.409344E0,2.205661E0,1.0897932E1,1.2246324E0,1.1159753E0,8.069572E0,1.339771E0,1.0227132E0,1.182948E0,7.267683E0,3.630249E0,1.6559411E0,1.974308E0],"tree_param":{"num_deleted":"0","num_feature":"17","num_nodes":"19","size_leaf_vector":"1"}},{"base_weights":[-3.3113148E-2,8.2871497E-1,-8.628596E-1,4.748474E-2,9.975032E-2,-1.2204545E-3,-4.7214497E-2,-2.1503989E-2,2.8516833E-2],"categories":[],"categories_nodes":[],"categories_segments":[],"categories_sizes":[],"default_left":[0,0,0,0,0,0,0,0,0],"id":59,"left_children":[1,3,5,-1,7,-1,-1,-1,-1],"loss_changes":[2.0398476E1,1.1409702E0,9.678736E-1,0E0,1.0211526E0,0E0,0E0,0E0,0E0],"parents":[2147483647,0,0,1,1,2,2,4,4],"right_children":[2,4,6,-1,8,-1,-1,-1,-1],"split_conditions":[1.1E1,3E0,4.4825E0,4.748474E-2,4E0,-1.2204545E-3,-4.7214497E-2,-2.1503989E-2,2.8516833E-2],"split_indices":[15,6,0,0,6,0,0,0,0],"split_type":[0,0,0,0,0,0,0,0,0],"sum_hessian":[2.6525446E1,1.3011798E1,1.3513647E1,1.0900018E1,2.1117797E0,1.3113216E0,1.2202326E1,1.0338507E0,1.077929E0],"tree_param":{"num_deleted":"0","num_feature":"17","num_nodes":"9","size_leaf_vector":"1"}},{"base_weights":[-3.9604492E-2,8.2056534E-1,-8.469686E-1,4.686166E-2,3.235924E-1,1.9423247E-3,-4.7070216E-2,-1.6617758E-2,3.482157E-2],"categories":[],"categories_nodes":[],"categories_segments":[],"categories_sizes":[],"default_left":[0,0,0,0,0,0,0,0,0],"id":60,"left_children":[1,3,5,-1,7,-1,-1,-1,-1],"loss_changes":[1.945675E1,4.845686E-1,1.243494E0,0E0,1.2368021E0,0E0,0E0,0E0,0E0],"parents":[2147483647,0,0,1,1,2,2,4,4],"right_children":[2,4,6,-1,8,-1,-1,-1,-1],"split_conditions":[1.1E1,1E0,4.4825E0,4.686166E-2,5.484E0,1.9423247E-3,-4.7070216E-2,-1.6617758E-2,3.482157E-2],"split_indices":[15,4,0,0,0,0,0,0,0],"split_type":[0,0,0,0,0,0,0,0,0],"sum_hessian":[2.601593E1,1.2588125E1,1.3427804E1,9.477365E0,3.1107616E0,1.3503217E0,1.2077482E1,1.1667116E0,1.9440501E0],"tree_param":{"num_deleted":"0","num_feature":"17","num_nodes":"9","size_leaf_vector":"1"}},{"base_weights":[1.2612864E-2,8.853158E-1,-8.3039135E-1,4.7017746E-2,1.8793914E-2,7.0209093E-3,-4.664213E-2],"categories":[],"categories_nodes":[],"categories_segments":[],"categories_sizes":[],"default_left":[0,0,0,0,0,0,0],"id":61,"left_children":[1,3,5,-1,-1,-1,-1],"loss_changes":[1.9459127E1,1.0743141E-2,1.4698963E0,0E0,0E0,0E0,0E0],"parents":[2147483647,0,0,1,1,2,2],"right_children":[2,4,6,-1,-1,-1,-1],"split_conditions":[1.1E1,3E0,4.4825E0,4.7017746E-2,1.8793914E-2,7.0209093E-3,-4.664213E-2],"split_indices":[15,6,0,0,0,0,0],"split_type":[0,0,0,0,0,0,0],"sum_hessian":[2.445082E1,1.1989129E1,1.2461692E1,1.005674E1,1.9323895E0,1.1541917E0,1.1307501E1],"tree_param":{"num_deleted":"0","num_feature":"17","num_nodes":"7","size_leaf_vector":"1"}},{"base_weights":[-1.1430628E-2,8.029641E-1,-8.3950895E-1,4.6785537E-2,3.5138242E-3,-5.5061124E-4,-4.6038885E-2],"categories":[],"categories_nodes":[],"categories_segments":[],"categories_sizes":[],"default_left":[0,0,0,0,0,0,0],"id":62,"left_children":[1,3,5,-1,-1,-1,-1],"loss_changes":[1.697982E1,1.1695833E0,8.2998276E-1,0E0,0E0,0E0,0E0],"parents":[2147483647,0,0,1,1,2,2],"right_children":[2,4,6,-1,-1,-1,-1],"split_conditions":[1.1E1,3E0,3.83E2,4.6785537E-2,3.5138242E-3,-5.5061124E-4,-4.6038885E-2],"split_indices":[15,6,16,0,0,0,0],"split_type":[0,0,0,0,0,0,0],"sum_hessian":[2.3178743E1,1.1701214E1,1.1477529E1,9.671805E0,2.0294087E0,1.126713E0,1.0350815E1],"tree_param":{"num_deleted":"0","num_feature":"17","num_nodes":"7","size_leaf_vector":"1"}},{"base_weights":[-2.7819715E-2,7.915705E-1,-8.201322E-1,4.60291E-2,2.805973E-1,5.027884E-3,-4.6265822E-2,-1.8770289E-2,3.374976E-2],"categories":[],"categories_nodes":[],"categories_segments":[],"categories_sizes":[],"default_left":[0,0,0,0,0,0,0,0,0],"id":63,"left_children":[1,3,5,-1,7,-1,-1,-1,-1],"loss_changes":[1.6035694E1,5.4328394E-1,1.3074818E0,0E0,1.2597638E0,0E0,0E0,0E0,0E0],"parents":[2147483647,0,0,1,1,2,2,4,4],"right_children":[2,4,6,-1,8,-1,-1,-1,-1],"split_conditions":[1.1E1,1E0,4.4825E0,4.60291E-2,5.484E0,5.027884E-3,-4.6265822E-2,-1.8770289E-2,3.374976E-2],"split_indices":[15,4,0,0,0,0,0,0,0],"split_type":[0,0,0,0,0,0,0,0,0],"sum_hessian":[2.2700237E1,1.1159888E1,1.1540348E1,8.27019E0,2.889698E0,1.1877578E0,1.0352591E1,1.1030861E0,1.7866118E0],"tree_param":{"num_deleted":"0","num_feature":"17","num_nodes":"9","size_leaf_vector":"1"}},{"base_weights":[-1.942632E-2,7.852016E-1,-8.3623344E-1,4.623982E-2,7.7589735E-2,-2.247382E-3,-4.5739252E-2,-2.2111518E-2,2.7822366E-2],"categories":[],"categories_nodes":[],"categories_segments":[],"categories_sizes":[],"default_left":[0,0,0,0,0,0,0,0,0],"id":64,"left_children":[1,3,5,-1,7,-1,-1,-1,-1],"loss_changes":[1.5464951E1,1.1003704E0,6.839676E-1,0E0,1.0044807E0,0E0,0E0,0E0,0E0],"parents":[2147483647,0,0,1,1,2,2,4,4],"right_children":[2,4,6,-1,8,-1,-1,-1,-1],"split_conditions":[1.1E1,3E0,3.83E2,4.623982E-2,4E0,-2.247382E-3,-4.5739252E-2,-2.2111518E-2,2.7822366E-2],"split_indices":[15,6,16,0,6,0,0,0,0],"split_type":[0,0,0,0,0,0,0,0,0],"sum_hessian":[2.1531584E1,1.086615E1,1.0665433E1,8.819374E0,2.046776E0,1.1051328E0,9.560301E0,1.0180877E0,1.0286882E0],"tree_param":{"num_deleted":"0","num_feature":"17","num_nodes":"9","size_leaf_vector":"1"}},{"base_weights":[-1.5809191E-2,7.7683014E-1,-8.120277E-1,4.6041254E-2,2.8825144E-3,7.585813E-4,-4.5280248E-2],"categories":[],"categories_nodes":[],"categories_segments":[],"categories_sizes":[],"default_left":[0,0,0,0,0,0,0],"id":65,"left_children":[1,3,5,-1,-1,-1,-1],"loss_changes":[1.4518431E1,1.1418037E0,9.0133667E-1,0E0,0E0,0E0,0E0],"parents":[2147483647,0,0,1,1,2,2],"right_children":[2,4,6,-1,-1,-1,-1],"split_conditions":[1.1E1,3E0,5.56E2,4.6041254E-2,2.8825144E-3,7.585813E-4,-4.5280248E-2],"split_indices":[15,6,16,0,0,0,0],"split_type":[0,0,0,0,0,0,0],"sum_hessian":[2.1004934E1,1.0538329E1,1.0466606E1,8.546714E0,1.9916148E0,1.1488584E0,9.317747E0],"tree_param":{"num_deleted":"0","num_feature":"17","num_nodes":"7","size_leaf_vector":"1"}},{"base_weights":[-3.8764216E-2,7.6462334E-1,-8.161856E-1,4.572315E-2,2.0884562E-3,8.102925E-4,-4.546235E-2],"categories":[],"categories_nodes":[],"categories_segments":[],"categories_sizes":[],"default_left":[0,0,0,0,0,0,0],"id":66,"left_children":[1,3,5,-1,-1,-1,-1],"loss_changes":[1.4032639E1,1.1612763E0,8.973727E-1,0E0,0E0,0E0,0E0],"parents":[2147483647,0,0,1,1,2,2],"right_children":[2,4,6,-1,-1,-1,-1],"split_conditions":[1.1E1,3E0,4.43E2,4.572315E-2,2.0884562E-3,8.102925E-4,-4.546235E-2],"split_indices":[15,6,16,0,0,0,0],"split_type":[0,0,0,0,0,0,0],"sum_hessian":[2.0468449E1,1.0074214E1,1.0394235E1,8.124933E0,1.949281E0,1.1282678E0,9.265967E0],"tree_param":{"num_deleted":"0","num_feature":"17","num_nodes":"7","size_leaf_vector":"1"}},{"base_weights":[-3.3970464E-2,3.6680198E-1,-5.354121E-1,5.258539E-1,-2.5275419E-2,9.675036E-3,-7.342658E-1,2.29532E-1,3.7940066E-2,-4.044799E-2,-9.939369E-3,3.5171196E-2,-2.4977457E-2],"categories":[],"categories_nodes":[],"categories_segments":[],"categories_sizes":[],"default_left":[0,0,0,0,0,0,0,0,0,0,0,0,0],"id":67,"left_children":[1,3,5,7,-1,-1,9,11,-1,-1,-1,-1,-1],"loss_changes":[4.389246E0,1.9569976E0,1.5443604E0,5.713024E-1,0E0,0E0,1.5154266E-1,2.4890141E0,0E0,0E0,0E0,0E0,0E0],"parents":[2147483647,0,0,1,1,2,2,3,3,6,6,7,7],"right_children":[2,4,6,8,-1,-1,10,12,-1,-1,-1,-1,-1],"split_conditions":[1E0,4.829E3,1.75E2,1E0,-2.5275419E-2,9.675036E-3,1E0,6.5E2,3.7940066E-2,-4.044799E-2,-9.939369E-3,3.5171196E-2,-2.4977457E-2],"split_indices":[4,16,16,3,0,0,2,16,0,0,0,0,0],"split_type":[0,0,0,0,0,0,0,0,0,0,0,0,0],"sum_hessian":[1.9863718E1,1.1189289E1,8.674429E0,9.79965E0,1.3896389E0,1.8650119E0,6.8094172E0,5.1869297E0,4.612721E0,5.5276413E0,1.2817758E0,3.1649501E0,2.0219796E0],"tree_param":{"num_deleted":"0","num_feature":"17","num_nodes":"13","size_leaf_vector":"1"}},{"base_weights":[-2.5306059E-2,7.4971515E-1,-7.873916E-1,4.484595E-2,2.2420397E-1,3.5388183E-3,-4.4770256E-2,-1.8956603E-2,3.1697802E-2],"categories":[],"categories_nodes":[],"categories_segments":[],"categories_sizes":[],"default_left":[0,0,0,0,0,0,0,0,0],"id":68,"left_children":[1,3,5,-1,7,-1,-1,-1,-1],"loss_changes":[1.251925E1,6.1314774E-1,1.0525231E0,0E0,1.1393677E0,0E0,0E0,0E0,0E0],"parents":[2147483647,0,0,1,1,2,2,4,4],"right_children":[2,4,6,-1,8,-1,-1,-1,-1],"split_conditions":[1.1E1,1E0,4.4825E0,4.484595E-2,5.484E0,3.5388183E-3,-4.4770256E-2,-1.8956603E-2,3.1697802E-2],"split_indices":[15,4,0,0,0,0,0,0,0],"split_type":[0,0,0,0,0,0,0,0,0],"sum_hessian":[1.9196875E1,9.525709E0,9.671166E0,6.8891854E0,2.6365235E0,1.1197208E0,8.551446E0,1.0965885E0,1.5399349E0],"tree_param":{"num_deleted":"0","num_feature":"17","num_nodes":"9","size_leaf_vector":"1"}},{"base_weights":[2.770736E-2,6.797147E-1,-2.2635646E-1,3.936108E-2,1.0871938E-2,2.1407166E-1,-7.157806E-1,-2.272564E-2,3.4389913E-2,-7.841697E-1,-8.36173E-3,-4.3706343E-2,-1.2803947E-2],"categories":[],"categories_nodes":[],"categories_segments":[],"categories_sizes":[],"default_left":[0,0,0,0,0,0,0,0,0,0,0,0,0],"id":69,"left_children":[1,3,5,-1,-1,7,9,-1,-1,11,-1,-1,-1],"loss_changes":[3.3145843E0,1.0713768E-1,3.2745965E0,0E0,0E0,2.9704378E0,1.3479996E-1,0E0,0E0,6.271124E-2,0E0,0E0,0E0],"parents":[2147483647,0,0,1,1,2,2,5,5,6,6,9,9],"right_children":[2,4,6,-1,-1,8,10,-1,-1,12,-1,-1,-1],"split_conditions":[2.91E2,7.2E1,1E0,3.936108E-2,1.0871938E-2,1E0,1.5E2,-2.272564E-2,3.4389913E-2,5.5272E0,-8.36173E-3,-4.3706343E-2,-1.2803947E-2],"split_indices":[16,5,4,0,0,3,5,0,0,0,0,0,0],"split_type":[0,0,0,0,0,0,0,0,0,0,0,0,0],"sum_hessian":[1.8080582E1,4.6000476E0,1.3480534E1,3.1618116E0,1.4382362E0,7.391552E0,6.0889816E0,3.0821629E0,4.309389E0,5.032074E0,1.0569074E0,3.7397678E0,1.2923062E0],"tree_param":{"num_deleted":"0","num_feature":"17","num_nodes":"13","size_leaf_vector":"1"}},{"base_weights":[1.2933524E-2,3.6642858E-1,-4.2678416E-1,5.224575E-1,-2.4650244E-2,6.184481E-3,-5.876845E-1,2.5315958E-1,3.5723295E-2,-3.2359324E-2,-7.7366466E-3,3.8266674E-2,-2.2728806E-2],"categories":[],"categories_nodes":[],"categories_segments":[],"categories_sizes":[],"default_left":[0,0,0,0,0,0,0,0,0,0,0,0,0],"id":70,"left_children":[1,3,5,7,-1,-1,9,11,-1,-1,-1,-1,-1],"loss_changes":[3.1360242E0,1.754701E0,8.702543E-1,3.328185E-1,0E0,0E0,8.38449E-2,2.4082007E0,0E0,0E0,0E0,0E0,0E0],"parents":[2147483647,0,0,1,1,2,2,3,3,6,6,7,7],"right_children":[2,4,6,8,-1,-1,10,12,-1,-1,-1,-1,-1],"split_conditions":[1E0,4.829E3,1.75E2,1E0,-2.4650244E-2,6.184481E-3,1E0,4.43E2,3.5723295E-2,-3.2359324E-2,-7.7366466E-3,3.8266674E-2,-2.2728806E-2],"split_indices":[4,16,16,3,0,0,2,16,0,0,0,0,0],"split_type":[0,0,0,0,0,0,0,0,0,0,0,0,0],"sum_hessian":[1.8169302E1,1.0164553E1,8.00475E0,8.934583E0,1.2299696E0,1.8628428E0,6.141907E0,4.683837E0,4.250746E0,4.9647603E0,1.1771472E0,2.670133E0,2.013704E0],"tree_param":{"num_deleted":"0","num_feature":"17","num_nodes":"13","size_leaf_vector":"1"}},{"base_weights":[-2.1915678E-2,6.341115E-1,-4.37713E-2,-1.5185195E-2,7.81449E-1,4.5928553E-2,2.8053397E-1,-7.651412E-3,2.6455183E-2],"categories":[],"categories_nodes":[],"categories_segments":[],"categories_sizes":[],"default_left":[0,0,0,0,0,0,0,0,0],"id":71,"left_children":[1,3,-1,-1,5,-1,7,-1,-1],"loss_changes":[1.0991061E1,1.7735801E0,0E0,0E0,4.2150974E-1,0E0,4.6515056E-1,0E0,0E0],"parents":[2147483647,0,0,1,1,4,4,6,6],"right_children":[2,4,-1,-1,6,-1,8,-1,-1],"split_conditions":[2.5E1,5E0,-4.37713E-2,-1.5185195E-2,7.2E1,4.5928553E-2,1.26E2,-7.651412E-3,2.6455183E-2],"split_indices":[15,5,0,0,5,0,5,0,0],"split_type":[0,0,0,0,0,0,0,0,0],"sum_hessian":[1.7638077E1,1.0118118E1,7.5199585E0,1.2296993E0,8.888419E0,6.3235936E0,2.5648258E0,1.0746887E0,1.4901371E0],"tree_param":{"num_deleted":"0","num_feature":"17","num_nodes":"9","size_leaf_vector":"1"}},{"base_weights":[-3.6696722E-3,7.222093E-1,-7.6076347E-1,4.3906715E-2,2.1981595E-1,-2.549896E-3,-4.3417126E-2,1.2862891E-2,3.123136E-3],"categories":[],"categories_nodes":[],"categories_segments":[],"categories_sizes":[],"default_left":[0,0,0,0,0,0,0,0,0],"id":72,"left_children":[1,3,5,-1,7,-1,-1,-1,-1],"loss_changes":[1.0355717E1,5.6077814E-1,6.598077E-1,0E0,5.21785E-3,0E0,0E0,0E0,0E0],"parents":[2147483647,0,0,1,1,2,2,4,4],"right_children":[2,4,6,-1,8,-1,-1,-1,-1],"split_conditions":[1.1E1,1E0,4.43E2,4.3906715E-2,5.56E2,-2.549896E-3,-4.3417126E-2,1.2862891E-2,3.123136E-3],"split_indices":[15,4,16,0,16,0,0,0,0],"split_type":[0,0,0,0,0,0,0,0,0],"sum_hessian":[1.6843939E1,8.622766E0,8.221173E0,6.0096745E0,2.6130905E0,1.2760868E0,6.945086E0,1.5979544E0,1.0151362E0],"tree_param":{"num_deleted":"0","num_feature":"17","num_nodes":"9","size_leaf_vector":"1"}},{"base_weights":[-1.9455085E-2,6.186542E-1,-4.290304E-2,4.337554E-2,2.1487461E-2,-2.2963775E-2,2.529847E-2],"categories":[],"categories_nodes":[],"categories_segments":[],"categories_sizes":[],"default_left":[0,0,0,0,0,0,0],"id":73,"left_children":[1,3,-1,-1,5,-1,-1],"loss_changes":[9.99508E0,1.5602937E0,0E0,0E0,1.1991547E0,0E0,0E0],"parents":[2147483647,0,0,1,1,4,4],"right_children":[2,4,-1,-1,6,-1,-1],"split_conditions":[2.5E1,1E0,-4.290304E-2,4.337554E-2,5.5144E0,-2.2963775E-2,2.529847E-2],"split_indices":[15,4,0,0,0,0,0],"split_type":[0,0,0,0,0,0,0],"sum_hessian":[1.6686127E1,9.624764E0,7.061363E0,6.474106E0,3.1506586E0,1.6075128E0,1.5431457E0],"tree_param":{"num_deleted":"0","num_feature":"17","num_nodes":"7","size_leaf_vector":"1"}},{"base_weights":[4.3137383E-2,-6.731244E-1,2.74494E-1,-5.526868E-3,-4.1313957E-2,4.984804E-1,-2.5597347E-2,3.8709212E-2,4.770858E-2,1.4327951E-2,-1.1915772E-1,-2.031356E-2,9.780991E-3],"categories":[],"categories_nodes":[],"categories_segments":[],"categories_sizes":[],"default_left":[0,0,0,0,0,0,0,0,0,0,0,0,0],"id":74,"left_children":[1,3,5,-1,-1,7,-1,-1,9,-1,11,-1,-1],"loss_changes":[2.9745924E0,2.8777802E-1,2.6218762E0,0E0,0E0,1.3256412E0,0E0,0E0,2.4245475E-1,0E0,4.2139074E-1,0E0,0E0],"parents":[2147483647,0,0,1,1,2,2,5,5,8,8,10,10],"right_children":[2,4,6,-1,-1,8,-1,-1,10,-1,12,-1,-1],"split_conditions":[5E0,1E0,4.829E3,-5.526868E-3,-4.1313957E-2,4.7E1,-2.5597347E-2,3.8709212E-2,1.75E2,1.4327951E-2,4E0,-2.031356E-2,9.780991E-3],"split_indices":[5,6,16,0,0,5,0,0,16,0,9,0,0],"split_type":[0,0,0,0,0,0,0,0,0,0,0,0,0],"sum_hessian":[1.583539E1,3.3999493E0,1.2435441E1,1.0959411E0,2.3040082E0,9.963804E0,2.4716368E0,5.7372737E0,4.22653E0,1.4433043E0,2.7832258E0,1.3035638E0,1.479662E0],"tree_param":{"num_deleted":"0","num_feature":"17","num_nodes":"13","size_leaf_vector":"1"}},{"base_weights":[1.0475431E-2,3.7982887E-1,-4.5702106E-1,5.8044916E-1,-2.1766093E-2,-7.311761E-1,1.0475379E-1,-8.715061E-3,4.1966565E-2,-2.0287521E-2,1.9075789E-2,-5.1093893E-3,-8.5801363E-1,1.0702037E-2,-3.8711696E-3,-5.0475515E-2,-1.0203023E-2],"categories":[],"categories_nodes":[],"categories_segments":[],"categories_sizes":[],"default_left":[0,0,0,0,0,0,0,0,0,0,0,0,0,0,0,0,0],"id":75,"left_children":[1,3,5,7,9,11,13,-1,-1,-1,-1,-1,15,-1,-1,-1,-1],"loss_changes":[3.0073006E0,7.9526734E-1,1.2620443E0,1.4190767E0,8.051757E-1,3.3499384E-1,8.4245384E-2,0E0,0E0,0E0,0E0,0E0,2.1740556E-1,0E0,0E0,0E0,0E0],"parents":[2147483647,0,0,1,1,2,2,3,3,4,4,5,5,6,6,12,12],"right_children":[2,4,6,8,10,12,14,-1,-1,-1,-1,-1,16,-1,-1,-1,-1],"split_conditions":[1E0,1E0,5.5272E0,5E0,2E0,5.1134E0,5.7744E0,-8.715061E-3,4.1966565E-2,-2.0287521E-2,1.9075789E-2,-5.1093893E-3,5E0,1.0702037E-2,-3.8711696E-3,-5.0475515E-2,-1.0203023E-2],"split_indices":[4,1,0,5,9,0,0,0,0,0,0,0,9,0,0,0,0],"split_type":[0,0,0,0,0,0,0,0,0,0,0,0,0,0,0,0,0],"sum_hessian":[1.5410999E1,8.713934E0,6.6970644E0,5.514005E0,3.1999292E0,4.2980175E0,2.399047E0,1.4917225E0,4.0222826E0,1.6360474E0,1.5638818E0,1.0242774E0,3.27374E0,1.3901817E0,1.0088654E0,2.2165449E0,1.0571952E0],"tree_param":{"num_deleted":"0","num_feature":"17","num_nodes":"17","size_leaf_vector":"1"}},{"base_weights":[1.5668334E-2,7.9765725E-1,-7.345097E-1,4.4718683E-2,2.9789924E-3,7.870572E-3,-4.335259E-2],"categories":[],"categories_nodes":[],"categories_segments":[],"categories_sizes":[],"default_left":[0,0,0,0,0,0,0],"id":76,"left_children":[1,3,5,-1,-1,-1,-1],"loss_changes":[1.0264474E1,5.575776E-1,1.1934838E0,0E0,0E0,0E0,0E0],"parents":[2147483647,0,0,1,1,2,2],"right_children":[2,4,6,-1,-1,-1,-1],"split_conditions":[1.1E1,4.589E3,4.4825E0,4.4718683E-2,2.9789924E-3,7.870572E-3,-4.335259E-2],"split_indices":[15,16,0,0,0,0,0],"split_type":[0,0,0,0,0,0,0],"sum_hessian":[1.5498597E1,7.55742E0,7.941178E0,6.494615E0,1.0628045E0,1.0031307E0,6.9380474E0],"tree_param":{"num_deleted":"0","num_feature":"17","num_nodes":"7","size_leaf_vector":"1"}},{"base_weights":[1.3097478E-2,7.912802E-1,-7.292084E-1,2.0134873E-3,4.457311E-2,7.4583003E-3,-4.338951E-2],"categories":[],"categories_nodes":[],"categories_segments":[],"categories_sizes":[],"default_left":[0,0,0,0,0,0,0],"id":77,"left_children":[1,3,5,-1,-1,-1,-1],"loss_changes":[9.880029E0,5.917387E-1,1.1961217E0,0E0,0E0,0E0,0E0],"parents":[2147483647,0,0,1,1,2,2],"right_children":[2,4,6,-1,-1,-1,-1],"split_conditions":[1.1E1,1.9E1,4.4825E0,2.0134873E-3,4.457311E-2,7.4583003E-3,-4.338951E-2],"split_indices":[15,5,0,0,0,0,0],"split_type":[0,0,0,0,0,0,0],"sum_hessian":[1.5104953E1,7.3420615E0,7.7628913E0,1.0291375E0,6.312924E0,1.0474498E0,6.715441E0],"tree_param":{"num_deleted":"0","num_feature":"17","num_nodes":"7","size_leaf_vector":"1"}},{"base_weights":[3.0388458E-2,7.813643E-1,-7.264951E-1,1.3707558E-3,4.4247627E-2,-3.2471654E-3,-4.1831046E-2],"categories":[],"categories_nodes":[],"categories_segments":[],"categories_sizes":[],"default_left":[0,0,0,0,0,0,0],"id":78,"left_children":[1,3,5,-1,-1,-1,-1],"loss_changes":[9.125383E0,6.0360146E-1,5.2970743E-1,0E0,0E0,0E0,0E0],"parents":[2147483647,0,0,1,1,2,2],"right_children":[2,4,6,-1,-1,-1,-1],"split_conditions":[1.1E1,1.9E1,2.5E1,1.3707558E-3,4.4247627E-2,-3.2471654E-3,-4.1831046E-2],"split_indices":[15,5,15,0,0,0,0],"split_type":[0,0,0,0,0,0,0],"sum_hessian":[1.4055782E1,7.0391903E0,7.016592E0,1.0030818E0,6.0361085E0,1.2282038E0,5.7883883E0],"tree_param":{"num_deleted":"0","num_feature":"17","num_nodes":"7","size_leaf_vector":"1"}},{"base_weights":[-5.5734105E-2,6.536049E-1,-7.1916085E-1,4.2890716E-2,-3.8131427E-3,1.689213E-3,-4.249432E-2],"categories":[],"categories_nodes":[],"categories_segments":[],"categories_sizes":[],"default_left":[0,0,0,0,0,0,0],"id":79,"left_children":[1,3,5,-1,-1,-1,-1],"loss_changes":[7.7070575E0,1.2512176E0,8.5773325E-1,0E0,0E0,0E0,0E0],"parents":[2147483647,0,0,1,1,2,2],"right_children":[2,4,6,-1,-1,-1,-1],"split_conditions":[1.1E1,3E0,4.43E2,4.2890716E-2,-3.8131427E-3,1.689213E-3,-4.249432E-2],"split_indices":[15,6,16,0,0,0,0],"split_type":[0,0,0,0,0,0,0],"sum_hessian":[1.4378444E1,6.9559326E0,7.422511E0,5.2982397E0,1.657693E0,1.2077491E0,6.214762E0],"tree_param":{"num_deleted":"0","num_feature":"17","num_nodes":"7","size_leaf_vector":"1"}},{"base_weights":[4.7839474E-2,7.6442015E-1,-6.7280954E-1,4.3438427E-2,5.268035E-3,7.301436E-3,-4.110214E-2],"categories":[],"categories_nodes":[],"categories_segments":[],"categories_sizes":[],"default_left":[0,0,0,0,0,0,0],"id":80,"left_children":[1,3,5,-1,-1,-1,-1],"loss_changes":[7.844021E0,4.3010712E-1,1.0498054E0,0E0,0E0,0E0,0E0],"parents":[2147483647,0,0,1,1,2,2],"right_children":[2,4,6,-1,-1,-1,-1],"split_conditions":[1.1E1,4.514E3,4.7346E0,4.3438427E-2,5.268035E-3,7.301436E-3,-4.110214E-2],"split_indices":[15,16,0,0,0,0,0],"split_type":[0,0,0,0,0,0,0],"sum_hessian":[1.3193776E1,6.5851064E0,6.6086693E0,5.410303E0,1.1748033E0,1.022071E0,5.5865984E0],"tree_param":{"num_deleted":"0","num_feature":"17","num_nodes":"7","size_leaf_vector":"1"}},{"base_weights":[9.33025E-2,4.432095E-2,-6.8224514E-1,8.008167E-3,-4.205712E-2],"categories":[],"categories_nodes":[],"categories_segments":[],"categories_sizes":[],"default_left":[0,0,0,0,0],"id":81,"left_children":[1,-1,3,-1,-1],"loss_changes":[9.047205E0,0E0,1.1392603E0,0E0,0E0],"parents":[2147483647,0,0,2,2],"right_children":[2,-1,4,-1,-1],"split_conditions":[1.1E1,4.432095E-2,4.4825E0,8.008167E-3,-4.205712E-2],"split_indices":[15,0,0,0,0],"split_type":[0,0,0,0,0],"sum_hessian":[1.2725339E1,6.22073E0,6.5046096E0,1.0309522E0,5.473657E0],"tree_param":{"num_deleted":"0","num_feature":"17","num_nodes":"5","size_leaf_vector":"1"}},{"base_weights":[-6.806023E-2,3.0239967E-1,-5.1514E-1,4.5301828E-1,-1.8966867E-2,6.0493185E-4,-7.181526E-1,-8.674689E-3,6.0747194E-1,-5.0091363E-2,-6.978772E-3,3.8940232E-2,4.7964337E-3],"categories":[],"categories_nodes":[],"categories_segments":[],"categories_sizes":[],"default_left":[0,0,0,0,0,0,0,0,0,0,0,0,0],"id":82,"left_children":[1,3,5,7,-1,-1,9,-1,11,-1,-1,-1,-1],"loss_changes":[2.4698923E0,1.0211151E0,7.259548E-1,8.050122E-1,0E0,0E0,6.5697336E-1,0E0,4.5310044E-1,0E0,0E0,0E0,0E0],"parents":[2147483647,0,0,1,1,2,2,3,3,6,6,8,8],"right_children":[2,4,6,8,-1,-1,10,-1,12,-1,-1,-1,-1],"split_conditions":[1E0,4.749E3,2E0,5E0,-1.8966867E-2,6.0493185E-4,5E0,-8.674689E-3,5.8E1,-5.0091363E-2,-6.978772E-3,3.8940232E-2,4.7964337E-3],"split_indices":[4,16,6,5,0,0,9,0,5,0,0,0,0],"split_type":[0,0,0,0,0,0,0,0,0,0,0,0,0],"sum_hessian":[1.2971998E1,7.270838E0,5.7011604E0,6.229931E0,1.0409068E0,1.84638E0,3.8547807E0,1.2077298E0,5.022201E0,2.0957198E0,1.7590609E0,3.3707612E0,1.65144E0],"tree_param":{"num_deleted":"0","num_feature":"17","num_nodes":"13","size_leaf_vector":"1"}},{"base_weights":[-3.2644525E-2,3.4938398E-1,-4.8680544E-1,5.028656E-1,-1.6982345E-2,-7.5470793E-1,6.158087E-2,-4.9192486E-3,6.2522966E-1,-9.405344E-3,-8.7316984E-1,1.4408916E-2,-9.6740415E-3,4.0283963E-2,5.2881124E-3,-5.2811693E-2,-1.4980011E-2],"categories":[],"categories_nodes":[],"categories_segments":[],"categories_sizes":[],"default_left":[0,0,0,0,0,0,0,0,0,0,0,0,0,0,0,0,0],"id":83,"left_children":[1,3,5,7,-1,9,11,-1,13,-1,15,-1,-1,-1,-1,-1,-1],"loss_changes":[2.501514E0,1.004186E0,1.009788E0,5.653317E-1,0E0,1.3648152E-1,2.3356928E-1,0E0,4.609034E-1,0E0,4.381752E-2,0E0,0E0,0E0,0E0,0E0,0E0],"parents":[2147483647,0,0,1,1,2,2,3,3,5,5,6,6,8,8,10,10],"right_children":[2,4,6,8,-1,10,12,-1,14,-1,16,-1,-1,-1,-1,-1,-1],"split_conditions":[1E0,4.709E3,5.5018E0,5E0,-1.6982345E-2,5.158E0,2.705E3,-4.9192486E-3,5.8E1,-9.405344E-3,4E0,1.4408916E-2,-9.6740415E-3,4.0283963E-2,5.2881124E-3,-5.2811693E-2,-1.4980011E-2],"split_indices":[4,16,0,5,0,0,16,0,5,0,6,0,0,0,0,0,0],"split_type":[0,0,0,0,0,0,0,0,0,0,0,0,0,0,0,0,0],"sum_hessian":[1.2437461E1,6.8804812E0,5.5569797E0,5.848019E0,1.0324621E0,3.4804473E0,2.0765326E0,1.0220442E0,4.825975E0,1.0493476E0,2.4310994E0,1.0308686E0,1.045664E0,3.1728399E0,1.6531351E0,1.2049962E0,1.2261033E0],"tree_param":{"num_deleted":"0","num_feature":"17","num_nodes":"17","size_leaf_vector":"1"}},{"base_weights":[2.9710876E-2,3.3246387E-2,-2.7410784E-1,5.672976E-2,-6.0907924E-1,-2.5564646E-2,2.8614277E-2,-9.964862E-3,-3.6728844E-2],"categories":[],"categories_nodes":[],"categories_segments":[],"categories_sizes":[],"default_left":[0,0,0,0,0,0,0,0,0],"id":84,"left_children":[1,-1,3,5,7,-1,-1,-1,-1],"loss_changes":[2.7410903E0,0E0,1.106981E0,1.986256E0,1.0526836E-1,0E0,0E0,0E0,0E0],"parents":[2147483647,0,0,2,2,3,3,4,4],"right_children":[2,-1,4,6,8,-1,-1,-1,-1],"split_conditions":[4.43E2,3.3246387E-2,1E0,1E0,3.034E3,-2.5564646E-2,2.8614277E-2,-9.964862E-3,-3.6728844E-2],"split_indices":[16,0,4,3,16,0,0,0,0],"split_type":[0,0,0,0,0,0,0,0,0],"sum_hessian":[1.225881E1,3.581704E0,8.677107E0,4.7833896E0,3.893717E0,2.279823E0,2.5035667E0,1.5196676E0,2.3740492E0],"tree_param":{"num_deleted":"0","num_feature":"17","num_nodes":"9","size_leaf_vector":"1"}},{"base_weights":[-2.6366357E-2,5.1668316E-1,-3.9947018E-2,6.1479735E-1,-3.9541977E-3,6.9645464E-1,3.11946E-3,1.8288054E-3,4.1184396E-2],"categories":[],"categories_nodes":[],"categories_segments":[],"categories_sizes":[],"default_left":[0,0,0,0,0,0,0,0,0],"id":85,"left_children":[1,3,-1,5,-1,7,-1,-1,-1],"loss_changes":[5.776323E0,5.229387E-1,0E0,2.759633E-1,0E0,4.7956443E-1,0E0,0E0,0E0],"parents":[2147483647,0,0,1,1,3,3,5,5],"right_children":[2,4,-1,6,-1,8,-1,-1,-1],"split_conditions":[2.5E1,4.589E3,-3.9947018E-2,1.1E1,-3.9541977E-3,2.5E1,3.11946E-3,1.8288054E-3,4.1184396E-2],"split_indices":[15,16,0,15,0,5,0,0,0],"split_type":[0,0,0,0,0,0,0,0,0],"sum_hessian":[1.1784116E1,7.114492E0,4.6696243E0,6.081083E0,1.033409E0,5.0707593E0,1.0103235E0,1.0277809E0,4.0429783E0],"tree_param":{"num_deleted":"0","num_feature":"17","num_nodes":"9","size_leaf_vector":"1"}},{"base_weights":[-7.501574E-2,5.885833E-1,-6.773933E-1,4.1270893E-2,-7.546951E-3,7.5021237E-3,-4.1904878E-2],"categories":[],"categories_nodes":[],"categories_segments":[],"categories_sizes":[],"default_left":[0,0,0,0,0,0,0],"id":86,"left_children":[1,3,5,-1,-1,-1,-1],"loss_changes":[5.666056E0,1.3164425E0,1.106031E0,0E0,0E0,0E0,0E0],"parents":[2147483647,0,0,1,1,2,2],"right_children":[2,4,6,-1,-1,-1,-1],"split_conditions":[1.1E1,3E0,4.4825E0,4.1270893E-2,-7.546951E-3,7.5021237E-3,-4.1904878E-2],"split_indices":[15,6,0,0,0,0,0],"split_type":[0,0,0,0,0,0,0],"sum_hessian":[1.2177043E1,5.8049827E0,6.3720603E0,4.3088946E0,1.4960883E0,1.0470971E0,5.324963E0],"tree_param":{"num_deleted":"0","num_feature":"17","num_nodes":"7","size_leaf_vector":"1"}},{"base_weights":[1.1656182E-2,7.2069705E-1,-6.616278E-1,1.872054E-3,4.2083677E-2,4.0397267E-3,-4.0253773E-2],"categories":[],"categories_nodes":[],"categories_segments":[],"categories_sizes":[],"default_left":[0,0,0,0,0,0,0],"id":87,"left_children":[1,3,5,-1,-1,-1,-1],"loss_changes":[6.4058337E0,5.080664E-1,7.990203E-1,0E0,0E0,0E0,0E0],"parents":[2147483647,0,0,1,1,2,2],"right_children":[2,4,6,-1,-1,-1,-1],"split_conditions":[1.1E1,2.5E1,4.4825E0,1.872054E-3,4.2083677E-2,4.0397267E-3,-4.0253773E-2],"split_indices":[15,5,0,0,0,0,0],"split_type":[0,0,0,0,0,0,0],"sum_hessian":[1.14197235E1,5.5278645E0,5.8918595E0,1.028507E0,4.499357E0,1.0247853E0,4.867074E0],"tree_param":{"num_deleted":"0","num_feature":"17","num_nodes":"7","size_leaf_vector":"1"}},{"base_weights":[9.404512E-2,4.3083392E-2,-6.38812E-1,3.881298E-3,-3.945628E-2],"categories":[],"categories_nodes":[],"categories_segments":[],"categories_sizes":[],"default_left":[0,0,0,0,0],"id":88,"left_children":[1,-1,3,-1,-1],"loss_changes":[7.21498E0,0E0,7.7577543E-1,0E0,0E0],"parents":[2147483647,0,0,2,2],"right_children":[2,-1,4,-1,-1],"split_conditions":[1.1E1,4.3083392E-2,4.4825E0,3.881298E-3,-3.945628E-2],"split_indices":[15,0,0,0,0],"split_type":[0,0,0,0,0],"sum_hessian":[1.0846849E1,5.21192E0,5.63493E0,1.0610821E0,4.573848E0],"tree_param":{"num_deleted":"0","num_feature":"17","num_nodes":"5","size_leaf_vector":"1"}},{"base_weights":[1.8964067E-2,7.0163053E-1,-6.4639324E-1,4.1166265E-2,4.1216114E-3,3.7714408E-3,-3.987479E-2],"categories":[],"categories_nodes":[],"categories_segments":[],"categories_sizes":[],"default_left":[0,0,0,0,0,0,0],"id":89,"left_children":[1,3,5,-1,-1,-1,-1],"loss_changes":[5.709616E0,3.9865017E-1,7.560868E-1,0E0,0E0,0E0,0E0],"parents":[2147483647,0,0,1,1,2,2],"right_children":[2,4,6,-1,-1,-1,-1],"split_conditions":[1.1E1,4.509E3,4.43E2,4.1166265E-2,4.1216114E-3,3.7714408E-3,-3.987479E-2],"split_indices":[15,16,16,0,0,0,0],"split_type":[0,0,0,0,0,0,0],"sum_hessian":[1.0571751E1,5.1910944E0,5.3806562E0,4.0629206E0,1.1281735E0,1.0180773E0,4.362579E0],"tree_param":{"num_deleted":"0","num_feature":"17","num_nodes":"7","size_leaf_vector":"1"}},{"base_weights":[9.024829E-2,7.3561656E-1,-3.8652003E-2,4.2597707E-2,2.528407E-3],"categories":[],"categories_nodes":[],"categories_segments":[],"categories_sizes":[],"default_left":[0,0,0,0,0],"id":90,"left_children":[1,3,-1,-1,-1],"loss_changes":[6.8568873E0,5.124762E-1,0E0,0E0,0E0],"parents":[2147483647,0,0,1,1],"right_children":[2,4,-1,-1,-1],"split_conditions":[2.5E1,1.1E1,-3.8652003E-2,4.2597707E-2,2.528407E-3],"split_indices":[15,15,0,0,0],"split_type":[0,0,0,0,0],"sum_hessian":[1.028664E1,5.9708805E0,4.31576E0,4.8958135E0,1.075067E0],"tree_param":{"num_deleted":"0","num_feature":"17","num_nodes":"5","size_leaf_vector":"1"}},{"base_weights":[-7.073276E-2,4.1550186E-1,-3.732359E-2,3.4472663E-2,-1.605659E-2],"categories":[],"categories_nodes":[],"categories_segments":[],"categories_sizes":[],"default_left":[0,0,0,0,0],"id":91,"left_children":[1,3,-1,-1,-1],"loss_changes":[3.9385448E0,1.6470197E0,0E0,0E0,0E0],"parents":[2147483647,0,0,1,1],"right_children":[2,4,-1,-1,-1],"split_conditions":[2.5E1,3E0,-3.732359E-2,3.4472663E-2,-1.605659E-2],"split_indices":[15,6,0,0,0],"split_type":[0,0,0,0,0],"sum_hessian":[1.0043035E1,6.0644298E0,3.9786046E0,4.467159E0,1.5972713E0],"tree_param":{"num_deleted":"0","num_feature":"17","num_nodes":"5","size_leaf_vector":"1"}},{"base_weights":[-5.138564E-2,3.3412838E-1,-5.14529E-1,-8.636425E-3,4.6177775E-1,-7.8659344E-1,2.3233152E-3,3.4612056E-2,-7.5834355E-4,-1.5396604E-2,-4.867729E-2],"categories":[],"categories_nodes":[],"categories_segments":[],"categories_sizes":[],"default_left":[0,0,0,0,0,0,0,0,0,0,0],"id":92,"left_children":[1,3,5,-1,7,9,-1,-1,-1,-1,-1],"loss_changes":[2.0738776E0,4.9511433E-1,8.3519924E-1,0E0,6.041001E-1,2.05369E-2,0E0,0E0,0E0,0E0,0E0],"parents":[2147483647,0,0,1,1,2,2,4,4,5,5],"right_children":[2,4,6,-1,8,10,-1,-1,-1,-1,-1],"split_conditions":[1E0,5E0,5.5018E0,-8.636425E-3,4.6E1,1E0,2.3233152E-3,3.4612056E-2,-7.5834355E-4,-1.5396604E-2,-4.867729E-2],"split_indices":[4,5,0,0,5,3,0,0,0,0,0],"split_type":[0,0,0,0,0,0,0,0,0,0,0],"sum_hessian":[9.652353E0,5.4196644E0,4.232689E0,1.0192769E0,4.4003873E0,2.5795512E0,1.6531377E0,2.662459E0,1.7379284E0,1.4680251E0,1.1115261E0],"tree_param":{"num_deleted":"0","num_feature":"17","num_nodes":"11","size_leaf_vector":"1"}},{"base_weights":[-2.8278539E-2,4.6646476E-1,-3.628282E-2,3.873562E-2,-1.5532048E-1,-3.0645747E-2,1.935779E-2],"categories":[],"categories_nodes":[],"categories_segments":[],"categories_sizes":[],"default_left":[0,0,0,0,0,0,0],"id":93,"left_children":[1,3,-1,-1,5,-1,-1],"loss_changes":[3.907543E0,1.3968213E0,0E0,0E0,9.920213E-1,0E0,0E0],"parents":[2147483647,0,0,1,1,4,4],"right_children":[2,4,-1,-1,6,-1,-1],"split_conditions":[2.5E1,1E0,-3.628282E-2,3.873562E-2,5.484E0,-3.0645747E-2,1.935779E-2],"split_indices":[15,4,0,0,0,0,0],"split_type":[0,0,0,0,0,0,0],"sum_hessian":[9.344382E0,5.660061E0,3.6843212E0,3.6196735E0,2.0403876E0,1.0363499E0,1.0040376E0],"tree_param":{"num_deleted":"0","num_feature":"17","num_nodes":"7","size_leaf_vector":"1"}},{"base_weights":[-6.355929E-2,5.0022686E-1,-6.008092E-1,3.89671E-2,-1.1023003E-2,3.3575166E-3,-3.7620082E-2],"categories":[],"categories_nodes":[],"categories_segments":[],"categories_sizes":[],"default_left":[0,0,0,0,0,0,0],"id":94,"left_children":[1,3,5,-1,-1,-1,-1],"loss_changes":[3.4933531E0,1.3162148E0,6.430695E-1,0E0,0E0,0E0,0E0],"parents":[2147483647,0,0,1,1,2,2],"right_children":[2,4,6,-1,-1,-1,-1],"split_conditions":[1.1E1,3E0,5.56E2,3.89671E-2,-1.1023003E-2,3.3575166E-3,-3.7620082E-2],"split_indices":[15,6,16,0,0,0,0],"split_type":[0,0,0,0,0,0,0],"sum_hessian":[9.54102E0,4.6891613E0,4.8518596E0,3.3214195E0,1.3677416E0,1.0004824E0,3.851377E0],"tree_param":{"num_deleted":"0","num_feature":"17","num_nodes":"7","size_leaf_vector":"1"}},{"base_weights":[-8.238087E-2,2.8978714E-1,-5.1007944E-1,3.129893E-2,2.7749784E-2,-7.610582E-1,3.8272452E-3,-2.2939058E-2,2.5780559E-2,-1.2924005E-2,-4.4721313E-2],"categories":[],"categories_nodes":[],"categories_segments":[],"categories_sizes":[],"default_left":[0,0,0,0,0,0,0,0,0,0,0],"id":95,"left_children":[1,3,5,-1,7,9,-1,-1,-1,-1,-1],"loss_changes":[1.7924086E0,5.2549726E-1,8.193793E-1,0E0,1.3069203E0,1.7614841E-2,0E0,0E0,0E0,0E0,0E0],"parents":[2147483647,0,0,1,1,2,2,4,4,5,5],"right_children":[2,4,6,-1,8,10,-1,-1,-1,-1,-1],"split_conditions":[1E0,4.43E2,5.5144E0,3.129893E-2,1E0,3E0,3.8272452E-3,-2.2939058E-2,2.5780559E-2,-1.2924005E-2,-4.4721313E-2],"split_indices":[4,16,0,0,3,6,0,0,0,0,0],"split_type":[0,0,0,0,0,0,0,0,0,0,0],"sum_hessian":[9.33194E0,5.1623216E0,4.169618E0,1.6528459E0,3.509476E0,2.7119832E0,1.457635E0,1.7869784E0,1.7224976E0,1.1849114E0,1.5270717E0],"tree_param":{"num_deleted":"0","num_feature":"17","num_nodes":"11","size_leaf_vector":"1"}},{"base_weights":[6.4494903E-3,5.3692865E-1,-3.720958E-2,3.4123834E-2,-6.4423434E-3],"categories":[],"categories_nodes":[],"categories_segments":[],"categories_sizes":[],"default_left":[0,0,0,0,0],"id":96,"left_children":[1,3,-1,-1,-1],"loss_changes":[4.420214E0,7.1751E-1,0E0,0E0,0E0],"parents":[2147483647,0,0,1,1],"right_children":[2,4,-1,-1,-1],"split_conditions":[2.5E1,4.514E3,-3.720958E-2,3.4123834E-2,-6.4423434E-3],"split_indices":[15,16,0,0,0],"split_type":[0,0,0,0,0],"sum_hessian":[9.097041E0,5.4970055E0,3.6000354E0,4.4902806E0,1.0067248E0],"tree_param":{"num_deleted":"0","num_feature":"17","num_nodes":"5","size_leaf_vector":"1"}},{"base_weights":[4.3723717E-2,6.4562154E-1,-5.889489E-1,3.9293062E-2,2.3711536E-3,-2.4428933E-3,-3.5637446E-2],"categories":[],"categories_nodes":[],"categories_segments":[],"categories_sizes":[],"default_left":[0,0,0,0,0,0,0],"id":97,"left_children":[1,3,5,-1,-1,-1,-1],"loss_changes":[3.947983E0,4.0553522E-1,3.055551E-1,0E0,0E0,0E0,0E0],"parents":[2147483647,0,0,1,1,2,2],"right_children":[2,4,6,-1,-1,-1,-1],"split_conditions":[1.1E1,1E0,1.036E3,3.9293062E-2,2.3711536E-3,-2.4428933E-3,-3.5637446E-2],"split_indices":[15,14,16,0,0,0,0],"split_type":[0,0,0,0,0,0,0],"sum_hessian":[8.368972E0,4.2783065E0,4.090666E0,3.2116618E0,1.0666444E0,1.0228819E0,3.0677838E0],"tree_param":{"num_deleted":"0","num_feature":"17","num_nodes":"7","size_leaf_vector":"1"}},{"base_weights":[-7.305873E-2,2.913028E-1,-4.8301566E-1,2.7341196E-2,4.9863663E-2,-7.297733E-1,2.5750354E-3,-1.1892913E-2,1.6921725E-2,-1.1217668E-2,-4.299654E-2],"categories":[],"categories_nodes":[],"categories_segments":[],"categories_sizes":[],"default_left":[0,0,0,0,0,0,0,0,0,0,0],"id":98,"left_children":[1,3,5,-1,7,9,-1,-1,-1,-1,-1],"loss_changes":[1.5806764E0,3.260908E-1,6.8551624E-1,0E0,4.1637608E-1,3.2502294E-2,0E0,0E0,0E0,0E0,0E0],"parents":[2147483647,0,0,1,1,2,2,4,4,5,5],"right_children":[2,4,6,-1,8,10,-1,-1,-1,-1,-1],"split_conditions":[1E0,4.43E2,5.5018E0,2.7341196E-2,5.1756E0,3E0,2.5750354E-3,-1.1892913E-2,1.6921725E-2,-1.1217668E-2,-4.299654E-2],"split_indices":[4,16,0,0,0,6,0,0,0,0,0],"split_type":[0,0,0,0,0,0,0,0,0,0,0],"sum_hessian":[8.640143E0,4.727694E0,3.9124494E0,1.6823592E0,3.045335E0,2.42682E0,1.4856292E0,1.6129084E0,1.4324266E0,1.0547571E0,1.3720629E0],"tree_param":{"num_deleted":"0","num_feature":"17","num_nodes":"11","size_leaf_vector":"1"}},{"base_weights":[2.8914575E-2,6.3330805E-1,-5.60206E-1,3.872154E-2,1.8472031E-3,4.5623984E-3,-3.68268E-2],"categories":[],"categories_nodes":[],"categories_segments":[],"categories_sizes":[],"default_left":[0,0,0,0,0,0,0],"id":99,"left_children":[1,3,5,-1,-1,-1,-1],"loss_changes":[3.7096827E0,4.0231013E-1,6.7625797E-1,0E0,0E0,0E0,0E0],"parents":[2147483647,0,0,1,1,2,2],"right_children":[2,4,6,-1,-1,-1,-1],"split_conditions":[1.1E1,4.469E3,4.8036E0,3.872154E-2,1.8472031E-3,4.5623984E-3,-3.68268E-2],"split_indices":[15,16,0,0,0,0,0],"split_type":[0,0,0,0,0,0,0],"sum_hessian":[8.422271E0,4.1202245E0,4.302047E0,3.0903428E0,1.0298818E0,1.0191811E0,3.2828655E0],"tree_param":{"num_deleted":"0","num_feature":"17","num_nodes":"7","size_leaf_vector":"1"}},{"base_weights":[-5.3282097E-2,3.7450346E-1,-3.4208324E-2,3.263683E-2,-1.4947829E-2],"categories":[],"categories_nodes":[],"categories_segments":[],"categories_sizes":[],"default_left":[0,0,0,0,0],"id":100,"left_children":[1,3,-1,-1,-1],"loss_changes":[2.7692459E0,1.3559871E0,0E0,0E0,0E0],"parents":[2147483647,0,0,1,1],"right_children":[2,4,-1,-1,-1],"split_conditions":[2.5E1,3E0,-3.4208324E-2,3.263683E-2,-1.4947829E-2],"split_indices":[15,6,0,0,0],"split_type":[0,0,0,0,0],"sum_hessian":[8.311521E0,5.195188E0,3.1163323E0,3.6981196E0,1.4970683E0],"tree_param":{"num_deleted":"0","num_feature":"17","num_nodes":"5","size_leaf_vector":"1"}},{"base_weights":[2.537389E-2,2.5744248E-2,-2.4970251E-1,7.17317E-2,-5.3054214E-1,-1.9621065E-2,2.3060827E-2,-5.642974E-3,-3.4620296E-2],"categories":[],"categories_nodes":[],"categories_segments":[],"categories_sizes":[],"default_left":[0,0,0,0,0,0,0,0,0],"id":101,"left_children":[1,-1,3,5,7,-1,-1,-1,-1],"loss_changes":[1.3329715E0,0E0,6.15789E-1,8.797415E-1,1.6083223E-1,0E0,0E0,0E0,0E0],"parents":[2147483647,0,0,2,2,3,3,4,4],"right_children":[2,-1,4,6,8,-1,-1,-1,-1],"split_conditions":[4.43E2,2.5744248E-2,1E0,1E0,3.777E3,-1.9621065E-2,2.3060827E-2,-5.642974E-3,-3.4620296E-2],"split_indices":[16,0,4,3,16,0,0,0,0],"split_type":[0,0,0,0,0,0,0,0,0],"sum_hessian":[7.944501E0,2.5445569E0,5.399944E0,2.8651853E0,2.5347588E0,1.303843E0,1.5613422E0,1.1819739E0,1.3527849E0],"tree_param":{"num_deleted":"0","num_feature":"17","num_nodes":"9","size_leaf_vector":"1"}},{"base_weights":[-6.3007675E-2,-3.2577302E-2,1.643728E-1,4.1231614E-1,-2.095705E-2,2.9441023E-2,6.9647364E-2,-7.6211556E-3,1.3006336E-2],"categories":[],"categories_nodes":[],"categories_segments":[],"categories_sizes":[],"default_left":[0,0,0,0,0,0,0,0,0],"id":102,"left_children":[1,-1,3,5,-1,-1,7,-1,-1],"loss_changes":[1.3168645E0,0E0,1.2317716E0,3.0016035E-1,0E0,0E0,1.687428E-1,0E0,0E0],"parents":[2147483647,0,0,2,2,3,3,6,6],"right_children":[2,-1,4,6,-1,-1,8,-1,-1],"split_conditions":[5E0,-3.2577302E-2,4.589E3,5.8E1,-2.095705E-2,2.9441023E-2,4E0,-7.6211556E-3,1.3006336E-2],"split_indices":[5,0,16,5,0,0,9,0,0],"split_type":[0,0,0,0,0,0,0,0,0],"sum_hessian":[8.04012E0,1.7207603E0,6.3193593E0,4.6408057E0,1.6785536E0,2.5889392E0,2.0518665E0,1.0396186E0,1.012248E0],"tree_param":{"num_deleted":"0","num_feature":"17","num_nodes":"9","size_leaf_vector":"1"}},{"base_weights":[3.975927E-2,5.263393E-1,-3.375412E-2,-6.4974435E-4,3.3330493E-2],"categories":[],"categories_nodes":[],"categories_segments":[],"categories_sizes":[],"default_left":[0,0,0,0,0],"id":103,"left_children":[1,3,-1,-1,-1],"loss_changes":[3.4151883E0,4.4715536E-1,0E0,0E0,0E0],"parents":[2147483647,0,0,1,1],"right_children":[2,4,-1,-1,-1],"split_conditions":[2.5E1,1.4E1,-3.375412E-2,-6.4974435E-4,3.3330493E-2],"split_indices":[15,5,0,0,0],"split_type":[0,0,0,0,0],"sum_hessian":[7.7970743E0,4.796131E0,3.0009427E0,1.1772016E0,3.6189296E0],"tree_param":{"num_deleted":"0","num_feature":"17","num_nodes":"5","size_leaf_vector":"1"}},{"base_weights":[-6.779227E-2,3.1674993E-1,-3.253594E-2,2.6807925E-2,-6.2978715E-2,6.6664995E-4,-5.5261445E-3],"categories":[],"categories_nodes":[],"categories_segments":[],"categories_sizes":[],"default_left":[0,0,0,0,0,0,0],"id":104,"left_children":[1,3,-1,-1,5,-1,-1],"loss_changes":[2.2017376E0,5.367191E-1,0E0,0E0,1.2741164E-2,0E0,0E0],"parents":[2147483647,0,0,1,1,4,4],"right_children":[2,4,-1,-1,6,-1,-1],"split_conditions":[2.5E1,3E0,-3.253594E-2,2.6807925E-2,2.309E3,6.6664995E-4,-5.5261445E-3],"split_indices":[15,9,0,0,16,0,0],"split_type":[0,0,0,0,0,0,0],"sum_hessian":[7.9026766E0,5.036707E0,2.8659697E0,2.931135E0,2.1055717E0,1.0844768E0,1.0210949E0],"tree_param":{"num_deleted":"0","num_feature":"17","num_nodes":"7","size_leaf_vector":"1"}},{"base_weights":[2.3617625E-2,5.979145E-1,-5.22371E-1,1.1188342E-3,3.743155E-2,4.9331123E-3,-3.5186846E-2],"categories":[],"categories_nodes":[],"categories_segments":[],"categories_sizes":[],"default_left":[0,0,0,0,0,0,0],"id":105,"left_children":[1,3,5,-1,-1,-1,-1],"loss_changes":[3.0309749E0,3.902352E-1,6.301695E-1,0E0,0E0,0E0,0E0],"parents":[2147483647,0,0,1,1,2,2],"right_children":[2,4,6,-1,-1,-1,-1],"split_conditions":[1.1E1,3.7E1,4.8328E0,1.1188342E-3,3.743155E-2,4.9331123E-3,-3.5186846E-2],"split_indices":[15,5,0,0,0,0,0],"split_type":[0,0,0,0,0,0,0],"sum_hessian":[7.6702566E0,3.6918685E0,3.9783878E0,1.0044945E0,2.6873739E0,1.002304E0,2.976084E0],"tree_param":{"num_deleted":"0","num_feature":"17","num_nodes":"7","size_leaf_vector":"1"}},{"base_weights":[1.6031979E-2,5.834688E-1,-5.3164226E-1,3.676283E-2,1.1221985E-3,7.695343E-4,-3.413906E-2],"categories":[],"categories_nodes":[],"categories_segments":[],"categories_sizes":[],"default_left":[0,0,0,0,0,0,0],"id":106,"left_children":[1,3,5,-1,-1,-1,-1],"loss_changes":[2.8867946E0,3.708583E-1,4.0258455E-1,0E0,0E0,0E0,0E0],"parents":[2147483647,0,0,1,1,2,2],"right_children":[2,4,6,-1,-1,-1,-1],"split_conditions":[1.1E1,4.429E3,4.8928E0,3.676283E-2,1.1221985E-3,7.695343E-4,-3.413906E-2],"split_indices":[15,16,0,0,0,0,0],"split_type":[0,0,0,0,0,0,0],"sum_hessian":[7.290999E0,3.5487926E0,3.7422066E0,2.5486765E0,1.000116E0,1.0045397E0,2.7376668E0],"tree_param":{"num_deleted":"0","num_feature":"17","num_nodes":"7","size_leaf_vector":"1"}},{"base_weights":[-7.5143844E-2,3.076212E-1,-3.2549065E-2,3.162185E-2,-1.2690841E-2],"categories":[],"categories_nodes":[],"categories_segments":[],"categories_sizes":[],"default_left":[0,0,0,0,0],"id":107,"left_children":[1,3,-1,-1,-1],"loss_changes":[2.0191753E0,1.1883929E0,0E0,0E0,0E0],"parents":[2147483647,0,0,1,1],"right_children":[2,4,-1,-1,-1],"split_conditions":[2.5E1,1E0,-3.2549065E-2,3.162185E-2,-1.2690841E-2],"split_indices":[15,4,0,0,0],"split_type":[0,0,0,0,0],"sum_hessian":[7.252421E0,4.6363654E0,2.6160553E0,2.8570065E0,1.7793589E0],"tree_param":{"num_deleted":"0","num_feature":"17","num_nodes":"5","size_leaf_vector":"1"}},{"base_weights":[-8.928825E-2,2.8310403E-1,-3.283293E-2,2.8161371E-2,-1.1058788E-2],"categories":[],"categories_nodes":[],"categories_segments":[],"categories_sizes":[],"default_left":[0,0,0,0,0],"id":108,"left_children":[1,3,-1,-1,-1],"loss_changes":[1.9148179E0,9.211502E-1,0E0,0E0,0E0],"parents":[2147483647,0,0,1,1],"right_children":[2,4,-1,-1,-1],"split_conditions":[2.5E1,1E0,-3.283293E-2,2.8161371E-2,-1.1058788E-2],"split_indices":[15,4,0,0,0],"split_type":[0,0,0,0,0],"sum_hessian":[7.182884E0,4.639067E0,2.543817E0,2.9072294E0,1.7318377E0],"tree_param":{"num_deleted":"0","num_feature":"17","num_nodes":"5","size_leaf_vector":"1"}},{"base_weights":[-5.9471726E-2,3.2077077E-1,-3.1370513E-2,3.307935E-2,-2.057099E-2],"categories":[],"categories_nodes":[],"categories_segments":[],"categories_sizes":[],"default_left":[0,0,0,0,0],"id":109,"left_children":[1,3,-1,-1,-1],"loss_changes":[1.9150733E0,1.6235101E0,0E0,0E0,0E0],"parents":[2147483647,0,0,1,1],"right_children":[2,4,-1,-1,-1],"split_conditions":[2.5E1,3E0,-3.1370513E-2,3.307935E-2,-2.057099E-2],"split_indices":[15,6,0,0,0],"split_type":[0,0,0,0,0],"sum_hessian":[6.9360223E0,4.4151926E0,2.5208297E0,3.078607E0,1.3365856E0],"tree_param":{"num_deleted":"0","num_feature":"17","num_nodes":"5","size_leaf_vector":"1"}},{"base_weights":[-7.993609E-2,2.544587E-1,-3.0408049E-2,2.7636006E-2,-1.934866E-2],"categories":[],"categories_nodes":[],"categories_segments":[],"categories_sizes":[],"default_left":[0,0,0,0,0],"id":110,"left_children":[1,3,-1,-1,-1],"loss_changes":[1.5577813E0,1.2793086E0,0E0,0E0,0E0],"parents":[2147483647,0,0,1,1],"right_children":[2,4,-1,-1,-1],"split_conditions":[2.5E1,3E0,-3.0408049E-2,2.7636006E-2,-1.934866E-2],"split_indices":[15,6,0,0,0],"split_type":[0,0,0,0,0],"sum_hessian":[6.9430704E0,4.568953E0,2.3741171E0,3.213159E0,1.3557941E0],"tree_param":{"num_deleted":"0","num_feature":"17","num_nodes":"5","size_leaf_vector":"1"}},{"base_weights":[1.3150942E-1,3.9117847E-2,-4.9842194E-1,7.3196884E-4,-3.250777E-2],"categories":[],"categories_nodes":[],"categories_segments":[],"categories_sizes":[],"default_left":[0,0,0,0,0],"id":111,"left_children":[1,-1,3,-1,-1],"loss_changes":[3.567106E0,0E0,3.6363614E-1,0E0,0E0],"parents":[2147483647,0,0,2,2],"right_children":[2,-1,4,-1,-1],"split_conditions":[1.1E1,3.9117847E-2,4.8869E0,7.3196884E-4,-3.250777E-2],"split_indices":[15,0,0,0,0],"split_type":[0,0,0,0,0],"sum_hessian":[6.7493787E0,3.2005682E0,3.5488107E0,1.0162044E0,2.5326064E0],"tree_param":{"num_deleted":"0","num_feature":"17","num_nodes":"5","size_leaf_vector":"1"}},{"base_weights":[-8.926892E-2,2.423867E-1,-3.0111913E-2,2.7527293E-2,-2.024894E-2],"categories":[],"categories_nodes":[],"categories_segments":[],"categories_sizes":[],"default_left":[0,0,0,0,0],"id":112,"left_children":[1,3,-1,-1,-1],"loss_changes":[1.464769E0,1.3043852E0,0E0,0E0,0E0],"parents":[2147483647,0,0,1,1],"right_children":[2,4,-1,-1,-1],"split_conditions":[2.5E1,3E0,-3.0111913E-2,2.7527293E-2,-2.024894E-2],"split_indices":[15,6,0,0,0],"split_type":[0,0,0,0,0],"sum_hessian":[6.7517247E0,4.4209094E0,2.3308153E0,3.0964808E0,1.3244286E0],"tree_param":{"num_deleted":"0","num_feature":"17","num_nodes":"5","size_leaf_vector":"1"}},{"base_weights":[-1.1290885E-1,3.272095E-1,-5.2049017E-1,3.3971E-2,-1.52902E-2,-3.4136728E-3,-3.3709705E-2],"categories":[],"categories_nodes":[],"categories_segments":[],"categories_sizes":[],"default_left":[0,0,0,0,0,0,0],"id":113,"left_children":[1,3,5,-1,-1,-1,-1],"loss_changes":[1.534925E0,1.1601453E0,2.5532746E-1,0E0,0E0,0E0,0E0],"parents":[2147483647,0,0,1,1,2,2],"right_children":[2,4,6,-1,-1,-1,-1],"split_conditions":[1.1E1,3E0,1E0,3.3971E-2,-1.52902E-2,-3.4136728E-3,-3.3709705E-2],"split_indices":[15,6,9,0,0,0,0],"split_type":[0,0,0,0,0,0,0],"sum_hessian":[6.6072307E0,3.2716253E0,3.3356054E0,2.0549402E0,1.216685E0,1.2124903E0,2.123115E0],"tree_param":{"num_deleted":"0","num_feature":"17","num_nodes":"7","size_leaf_vector":"1"}},{"base_weights":[-1.9156841E-3,5.362559E-1,-5.0745636E-1,3.3508618E-3,3.4301106E-2,-1.1670192E-3,-3.2266594E-2],"categories":[],"categories_nodes":[],"categories_segments":[],"categories_sizes":[],"default_left":[0,0,0,0,0,0,0],"id":114,"left_children":[1,3,5,-1,-1,-1,-1],"loss_changes":[2.2991498E0,2.4180233E-1,2.7565622E-1,0E0,0E0,0E0,0E0],"parents":[2147483647,0,0,1,1,2,2],"right_children":[2,4,6,-1,-1,-1,-1],"split_conditions":[1.1E1,5.1708E0,4.8735E0,3.3508618E-3,3.4301106E-2,-1.1670192E-3,-3.2266594E-2],"split_indices":[15,0,0,0,0,0,0],"split_type":[0,0,0,0,0,0,0],"sum_hessian":[6.450439E0,3.0949566E0,3.3554826E0,1.0990273E0,1.9959292E0,1.0029953E0,2.3524873E0],"tree_param":{"num_deleted":"0","num_feature":"17","num_nodes":"7","size_leaf_vector":"1"}},{"base_weights":[3.075182E-2,5.206733E-1,-4.4321498E-1,3.3914484E-2,1.6477657E-3,6.2182156E-4,-3.0142793E-2],"categories":[],"categories_nodes":[],"categories_segments":[],"categories_sizes":[],"default_left":[0,0,0,0,0,0,0],"id":115,"left_children":[1,3,5,-1,-1,-1,-1],"loss_changes":[1.8903981E0,2.8315818E-1,3.110391E-1,0E0,0E0,0E0,0E0],"parents":[2147483647,0,0,1,1,2,2],"right_children":[2,4,6,-1,-1,-1,-1],"split_conditions":[1.1E1,4.269E3,9E2,